<?xml version="1.0"?>
<opencv_storage>
<opencv_ml_svm>
  <format>3</format>
  <svmType>C_SVC</svmType>
  <kernel>
    <type>RBF</type>
    <gamma>5.0625000000000009e-01</gamma></kernel>
  <C>3.1250000000000000e+02</C>
  <term_criteria><epsilon>1.1920928955078125e-07</epsilon>
    <iterations>1000</iterations></term_criteria>
  <var_count>200</var_count>
  <class_count>2</class_count>
  <class_labels type_id="opencv-matrix">
    <rows>2</rows>
    <cols>1</cols>
    <dt>i</dt>
    <data>
      0 1</data></class_labels>
  <sv_total>75</sv_total>
  <support_vectors>
    <_>
      1.20336947e-03 6.25752136e-02 7.22021703e-03 6.01684721e-03
      3.61010851e-03 2.40673893e-03 4.81347786e-03 3.61010851e-03
      2.40673893e-03 4.81347786e-03 1.56438034e-02 3.61010851e-03
      3.61010851e-03 7.22021703e-03 6.01684721e-03 3.61010851e-03
      2.40673893e-03 7.22021703e-03 0. 3.61010842e-02 1.08303251e-02
      7.22021703e-03 0. 0. 1.08303251e-02 0. 2.40673893e-03
      7.22021703e-03 0. 0. 4.81347786e-03 0. 1.20336947e-03
      1.44404341e-02 4.81347786e-03 7.22021703e-03 9.62695573e-03
      8.42358638e-03 2.16606501e-02 0. 8.42358638e-03 1.20336947e-03
      1.80505421e-02 1.80505421e-02 2.40673893e-03 2.40673893e-03 0.
      2.40673893e-03 1.20336947e-03 2.40673893e-03 1.08303251e-02 0.
      2.88808681e-02 1.20336947e-03 2.16606501e-02 6.01684721e-03
      7.22021703e-03 1.08303251e-02 0. 0. 2.40673893e-03 3.61010851e-03
      3.61010851e-03 3.61010851e-03 2.40673893e-03 1.20336947e-03
      2.40673893e-03 3.61010851e-03 8.42358638e-03 4.81347786e-03
      1.20336947e-03 0. 3.61010851e-03 6.01684721e-03 2.40673893e-03
      9.62695573e-03 0. 3.61010851e-03 1.20336947e-03 0. 0.
      2.40673893e-03 4.81347786e-03 3.61010851e-03 0. 1.20336947e-03 0.
      4.81347786e-03 1.32370638e-02 1.20336947e-03 1.20336947e-03
      3.61010851e-03 4.81347786e-03 2.40673893e-03 0. 0. 2.40673893e-03
      1.20336944e-02 4.81347786e-03 1.20336947e-03 1.20336947e-03
      1.56438034e-02 1.20336947e-03 8.42358638e-03 1.20336947e-03 0.
      1.68471728e-02 2.40673893e-03 1.20336947e-03 3.61010851e-03
      1.20336947e-03 1.20336947e-03 0. 8.42358638e-03 1.32370638e-02 0.
      7.22021703e-03 4.81347786e-03 6.01684721e-03 0. 7.22021703e-03
      4.81347786e-03 6.01684721e-03 2.40673893e-03 1.20336947e-03 0.
      2.40673893e-03 1.20336947e-03 6.01684721e-03 1.80505421e-02
      1.20336947e-03 4.81347786e-03 3.61010851e-03 3.61010851e-03
      4.81347786e-03 7.22021703e-03 1.20336947e-03 0. 1.08303251e-02 0.
      3.61010851e-03 1.20336947e-03 6.01684721e-03 4.81347786e-03
      3.61010851e-03 0. 0. 2.40673893e-03 0. 8.42358638e-03
      9.62695573e-03 2.40673893e-03 1.20336947e-03 1.20336947e-03
      1.20336947e-03 8.42358638e-03 4.81347786e-03 2.40673893e-03
      3.61010851e-03 3.61010851e-03 2.40673893e-03 6.01684721e-03
      2.40673893e-03 1.80505421e-02 0. 2.40673893e-03 0. 1.44404341e-02
      1.20336947e-03 0. 9.62695573e-03 2.52707582e-02 2.40673893e-03
      6.01684721e-03 1.20336947e-03 0. 3.61010851e-03 2.40673893e-03
      4.81347786e-03 4.81347786e-03 1.08303251e-02 0. 7.22021703e-03
      1.20336947e-03 0. 6.01684721e-03 8.42358638e-03 0. 0.
      1.20336947e-03 6.01684721e-03 6.01684721e-03 3.61010851e-03
      2.40673893e-03 0. 1.20336947e-03 2.40673893e-03 1.08303251e-02
      1.08303251e-02 0.</_>
    <_>
      0. 2.85326093e-02 8.15217383e-03 4.07608692e-03 0. 1.35869568e-03
      6.79347850e-03 2.71739135e-03 4.07608692e-03 0. 3.12500000e-02
      2.71739135e-03 1.35869568e-03 1.35869570e-02 8.15217383e-03 0. 0.
      6.79347850e-03 4.07608692e-03 5.02717383e-02 1.49456523e-02
      2.71739135e-03 1.35869568e-03 1.35869568e-03 1.63043477e-02
      2.71739135e-03 1.35869568e-03 1.08695654e-02 0. 0. 4.07608692e-03
      0. 0. 6.79347850e-03 2.71739135e-03 1.35869568e-03 1.22282607e-02
      5.43478271e-03 6.79347850e-03 2.71739135e-03 1.90217402e-02
      2.71739135e-03 9.51087009e-03 1.08695654e-02 0. 0. 2.71739135e-03
      0. 0. 6.79347850e-03 9.51087009e-03 2.71739135e-03 1.22282607e-02
      1.35869568e-03 4.07608692e-03 1.35869568e-03 1.63043477e-02
      1.63043477e-02 2.71739135e-03 0. 5.43478271e-03 1.35869570e-02
      2.71739135e-03 0. 0. 2.71739135e-03 5.43478271e-03 2.71739135e-03
      4.07608692e-03 4.07608692e-03 2.71739135e-03 1.35869568e-03
      2.71739135e-03 8.15217383e-03 4.07608692e-03 1.90217402e-02
      1.35869568e-03 6.79347850e-03 1.35869568e-03 1.35869568e-03
      1.35869568e-03 2.71739135e-03 1.35869568e-03 4.07608692e-03
      1.35869568e-03 0. 2.71739135e-03 1.35869568e-03 1.90217402e-02
      1.35869568e-03 0. 1.35869568e-03 0. 6.79347850e-03 0.
      1.35869568e-03 0. 1.08695654e-02 5.43478271e-03 2.71739135e-03
      2.71739135e-03 5.43478271e-03 4.07608692e-03 6.79347850e-03
      1.35869568e-03 0. 6.79347850e-03 0. 5.43478271e-03 6.79347850e-03
      9.51087009e-03 2.03804355e-02 8.15217383e-03 4.07608692e-03
      2.71739135e-03 0. 4.07608692e-03 2.71739135e-03 1.22282607e-02
      2.71739135e-03 6.79347850e-03 5.43478271e-03 0. 2.71739135e-03 0.
      2.71739135e-03 0. 6.79347850e-03 4.07608692e-03 4.07608692e-03
      2.71739135e-03 4.07608692e-03 2.17391308e-02 5.43478271e-03 0.
      6.79347850e-03 9.51087009e-03 5.43478271e-03 6.79347850e-03 0.
      8.15217383e-03 4.07608692e-03 1.08695654e-02 0. 5.43478271e-03
      4.07608692e-03 1.35869568e-03 5.43478271e-03 1.35869568e-03
      4.07608692e-03 0. 2.71739135e-03 5.43478271e-03 0. 1.35869568e-03
      1.35869568e-03 6.79347850e-03 0. 0. 1.35869568e-03 4.07608692e-03
      5.43478271e-03 1.35869568e-03 1.22282607e-02 0. 0. 1.35869568e-03
      2.17391308e-02 2.71739135e-03 0. 9.51087009e-03 2.58152187e-02
      8.15217383e-03 6.79347850e-03 1.35869568e-03 0. 9.51087009e-03 0.
      2.71739135e-03 8.15217383e-03 1.08695654e-02 0. 5.43478271e-03
      2.71739135e-03 0. 4.07608692e-03 6.79347850e-03 1.35869568e-03 0.
      0. 1.35869568e-03 4.07608692e-03 9.51087009e-03 1.63043477e-02 0.
      4.07608692e-03 2.71739135e-03 2.71739135e-03 1.35869568e-03
      1.35869568e-03</_>
    <_>
      0. 4.60947528e-02 1.40845068e-02 8.96286778e-03 1.28040975e-03 0.
      1.28040975e-02 7.68245850e-03 1.28040975e-03 6.40204875e-03
      1.66453272e-02 2.56081950e-03 1.28040975e-03 6.40204875e-03
      8.96286778e-03 1.28040975e-03 0. 3.84122925e-03 0. 4.86555696e-02
      6.40204875e-03 8.96286778e-03 0. 0. 1.02432780e-02 3.84122925e-03
      2.56081950e-03 7.68245850e-03 0. 0. 6.40204875e-03 1.28040975e-03
      0. 1.79257356e-02 7.68245850e-03 3.84122925e-03 1.79257356e-02
      2.56081950e-03 2.17669662e-02 2.56081950e-03 7.68245850e-03 0.
      1.15236882e-02 2.56081950e-02 0. 2.56081950e-03 0. 0. 0.
      1.28040975e-03 1.02432780e-02 2.56081950e-03 1.66453272e-02 0.
      1.40845068e-02 5.12163900e-03 8.96286778e-03 7.68245850e-03 0. 0.
      1.28040975e-03 2.56081950e-03 1.28040975e-03 0. 1.28040975e-03
      3.84122925e-03 2.56081950e-03 5.12163900e-03 6.40204875e-03 0.
      3.84122925e-03 1.28040975e-03 2.56081950e-03 8.96286778e-03
      3.84122925e-03 2.17669662e-02 3.84122925e-03 1.40845068e-02
      2.56081950e-03 0. 0. 3.84122925e-03 0. 2.56081950e-03 0.
      3.84122925e-03 1.28040975e-03 3.84122925e-03 2.30473764e-02 0. 0.
      0. 6.40204875e-03 6.40204875e-03 2.56081950e-03 0. 2.56081950e-03
      2.56081950e-03 5.12163900e-03 3.84122925e-03 0. 1.15236882e-02
      5.12163900e-03 3.84122925e-03 0. 1.28040975e-03 1.92061458e-02
      3.84122925e-03 1.28040975e-03 0. 2.56081950e-03 8.96286778e-03
      2.56081950e-03 1.28040975e-02 7.68245850e-03 0. 2.56081950e-03
      1.28040975e-03 2.56081950e-03 2.56081950e-03 6.40204875e-03
      3.84122925e-03 2.56081950e-03 0. 1.28040975e-03 0. 0. 0.
      1.28040975e-03 1.53649170e-02 1.28040975e-03 0. 1.15236882e-02
      5.12163900e-03 5.12163900e-03 1.15236882e-02 0. 1.28040975e-03
      1.40845068e-02 0. 0. 6.40204875e-03 7.68245850e-03 1.28040975e-03
      6.40204875e-03 0. 0. 2.56081950e-03 1.28040975e-03 7.68245850e-03
      6.40204875e-03 3.84122925e-03 1.28040975e-03 5.12163900e-03 0.
      8.96286778e-03 1.28040975e-03 0. 5.12163900e-03 1.28040975e-03 0.
      5.12163900e-03 5.12163900e-03 5.12163900e-03 0. 0. 1.28040975e-03
      2.04865560e-02 1.28040975e-03 0. 1.02432780e-02 1.66453272e-02 0.
      1.02432780e-02 3.84122925e-03 0. 7.68245850e-03 1.28040975e-03
      2.56081950e-03 0. 2.04865560e-02 1.28040975e-03 1.02432780e-02 0.
      2.56081950e-03 0. 7.68245850e-03 1.28040975e-03 0. 0.
      3.84122925e-03 2.56081950e-03 8.96286778e-03 7.68245850e-03 0.
      1.53649170e-02 2.56081950e-03 2.56081950e-03 6.40204875e-03 0.</_>
    <_>
      0. 2.80748662e-02 1.60427801e-02 8.02139007e-03 1.33689842e-03
      1.33689842e-03 1.20320860e-02 4.01069503e-03 2.67379684e-03
      9.35828872e-03 2.67379684e-03 1.06951874e-02 2.67379684e-03
      8.02139007e-03 6.68449234e-03 1.33689842e-03 0. 1.33689842e-03
      2.67379684e-03 3.60962562e-02 3.20855603e-02 4.01069503e-03
      1.33689842e-03 0. 6.68449234e-03 1.33689842e-03 2.67379684e-03
      1.20320860e-02 0. 0. 2.67379684e-03 0. 0. 1.73796788e-02
      1.47058824e-02 2.67379684e-03 1.87165774e-02 1.20320860e-02
      1.73796788e-02 0. 1.33689847e-02 2.67379684e-03 1.20320860e-02
      3.07486635e-02 4.01069503e-03 0. 0. 0. 0. 1.33689842e-03
      4.01069503e-03 0. 9.35828872e-03 1.33689842e-03 1.87165774e-02
      9.35828872e-03 5.34759369e-03 1.47058824e-02 0. 0. 0.
      2.67379684e-03 0. 2.67379684e-03 2.67379684e-03 2.67379684e-03
      2.67379684e-03 4.01069503e-03 2.67379684e-03 0. 1.33689842e-03
      1.33689842e-03 8.02139007e-03 5.34759369e-03 2.67379684e-03
      2.67379694e-02 1.33689842e-03 9.35828872e-03 4.01069503e-03
      1.33689842e-03 1.33689842e-03 1.33689842e-03 4.01069503e-03 0. 0.
      4.01069503e-03 0. 9.35828872e-03 1.87165774e-02 0. 4.01069503e-03
      1.33689842e-03 5.34759369e-03 2.67379684e-03 9.35828872e-03 0. 0.
      4.01069503e-03 4.01069503e-03 1.33689842e-03 2.67379684e-03
      9.35828872e-03 1.20320860e-02 1.33689842e-03 0. 2.67379684e-03
      1.06951874e-02 1.33689842e-03 4.01069503e-03 1.33689842e-03
      1.33689842e-03 5.34759369e-03 1.33689842e-03 8.02139007e-03
      8.02139007e-03 0. 1.33689847e-02 1.33689842e-03 2.67379684e-03
      1.33689842e-03 4.01069503e-03 0. 1.33689842e-03 0. 0. 0. 0. 0.
      1.06951874e-02 1.47058824e-02 2.67379684e-03 4.01069503e-03
      4.01069503e-03 4.01069503e-03 1.33689842e-03 1.33689847e-02
      1.33689842e-03 0. 1.33689847e-02 0. 1.33689842e-03 1.33689842e-03
      9.35828872e-03 2.67379684e-03 4.01069503e-03 0. 1.33689842e-03
      2.67379684e-03 0. 1.06951874e-02 9.35828872e-03 0. 5.34759369e-03
      5.34759369e-03 2.67379684e-03 5.34759369e-03 1.33689842e-03
      1.33689842e-03 0. 2.67379684e-03 1.33689842e-03 1.33689842e-03
      4.01069503e-03 9.35828872e-03 1.33689842e-03 0. 4.01069503e-03
      1.33689847e-02 4.01069503e-03 0. 1.06951874e-02 1.06951874e-02
      9.35828872e-03 1.47058824e-02 2.67379684e-03 0. 9.35828872e-03
      1.33689842e-03 1.20320860e-02 4.01069503e-03 6.68449234e-03 0.
      8.02139007e-03 0. 1.33689842e-03 1.33689842e-03 9.35828872e-03
      1.33689842e-03 0. 1.33689842e-03 6.68449234e-03 4.01069503e-03
      1.47058824e-02 2.67379684e-03 0. 2.67379684e-03 2.67379684e-03
      4.01069503e-03 9.35828872e-03 0.</_>
    <_>
      0. 9.25925933e-03 1.54320989e-02 6.17283955e-03 0. 0. 0.
      3.08641978e-03 0. 1.23456791e-02 9.25925970e-02 0. 6.17283955e-03
      3.08641978e-03 3.08641978e-03 0. 0. 3.08641978e-03 0.
      6.48148134e-02 1.23456791e-02 6.17283955e-03 9.25925933e-03
      6.17283955e-03 1.23456791e-02 0. 0. 9.25925933e-03 0. 0. 0. 0. 0.
      3.08641978e-03 0. 3.08641978e-03 3.08641978e-03 9.25925933e-03 0.
      3.08641978e-03 3.08641978e-03 0. 0. 0. 6.17283955e-03
      3.08641978e-03 0. 0. 0. 3.08641978e-03 6.17283955e-03
      1.54320989e-02 1.54320989e-02 3.08641978e-03 6.17283955e-03
      3.08641978e-03 9.25925933e-03 6.17283955e-03 0. 0. 3.08641978e-03
      6.17283955e-03 0. 0. 0. 3.08641978e-03 0. 3.08641978e-03 0. 0.
      3.08641978e-03 0. 3.08641978e-03 6.17283955e-03 6.17283955e-03
      1.85185187e-02 9.25925933e-03 3.08641978e-03 1.54320989e-02 0. 0.
      0. 1.85185187e-02 3.08641978e-03 0. 0. 0. 0. 3.08641978e-03 0. 0.
      3.08641978e-03 0. 3.08641978e-03 3.08641978e-03 3.08641978e-03
      3.08641978e-03 0. 6.17283955e-03 6.17283955e-03 3.08641978e-03
      3.08641978e-03 1.23456791e-02 6.17283955e-03 3.08641978e-03
      6.17283955e-03 3.08641978e-03 6.17283955e-03 0. 3.08641978e-03 0.
      1.23456791e-02 0. 3.08641978e-03 9.25925933e-03 0. 1.85185187e-02
      0. 1.23456791e-02 0. 3.08641978e-03 6.17283955e-03 0.
      9.25925933e-03 0. 0. 0. 9.25925933e-03 3.70370373e-02
      3.08641978e-03 3.08641978e-03 6.17283955e-03 3.08641978e-03 0. 0.
      3.08641978e-03 9.25925933e-03 0. 3.08641978e-03 0. 6.17283955e-03
      0. 9.25925933e-03 0. 3.39506194e-02 0. 0. 0. 0. 9.25925933e-03 0.
      6.17283955e-03 3.08641978e-03 3.08641978e-03 0. 0. 0. 0.
      6.17283955e-03 0. 3.08641978e-03 1.23456791e-02 0. 1.54320989e-02
      0. 0. 3.08641978e-03 1.85185187e-02 0. 0. 1.54320989e-02
      6.17283955e-03 0. 9.25925933e-03 2.16049384e-02 0. 1.54320989e-02
      3.08641978e-03 6.17283955e-03 3.08641978e-03 3.70370373e-02
      6.17283955e-03 6.17283955e-03 0. 0. 0. 3.08641978e-03 0. 0.
      3.08641978e-03 0. 3.08641978e-03 0. 6.17283955e-03 0. 0.
      3.08641978e-03 0. 1.54320989e-02 0.</_>
    <_>
      0. 3.10679618e-02 2.91262148e-03 7.76699046e-03 0. 5.82524296e-03
      2.91262148e-03 9.70873807e-04 4.85436898e-03 4.85436898e-03
      1.55339809e-02 1.94174761e-03 3.88349523e-03 5.82524296e-03
      8.73786397e-03 9.70873807e-04 3.88349523e-03 8.73786397e-03
      9.70873807e-04 2.42718458e-02 1.55339809e-02 8.73786397e-03
      2.91262148e-03 9.70873807e-04 2.91262148e-03 3.88349523e-03
      2.91262148e-03 7.76699046e-03 9.70873807e-04 0. 5.82524296e-03 0.
      9.70873807e-04 1.65048540e-02 3.88349523e-03 9.70873795e-03
      1.94174759e-02 1.06796119e-02 3.78640778e-02 2.91262148e-03
      5.82524296e-03 1.94174761e-03 1.94174759e-02 3.00970878e-02
      1.94174761e-03 1.94174761e-03 0. 2.91262148e-03 3.88349523e-03
      1.94174761e-03 8.73786397e-03 1.94174761e-03 1.84466019e-02 0.
      1.94174759e-02 9.70873807e-04 5.82524296e-03 9.70873795e-03 0. 0.
      0. 0. 9.70873807e-04 1.94174761e-03 9.70873807e-04 1.94174761e-03
      3.88349523e-03 4.85436898e-03 5.82524296e-03 9.70873807e-04
      1.94174761e-03 9.70873807e-04 2.91262148e-03 8.73786397e-03
      9.70873807e-04 1.45631069e-02 5.82524296e-03 2.03883499e-02
      1.94174761e-03 0. 1.94174761e-03 1.94174761e-03 3.88349523e-03
      9.70873807e-04 0. 6.79611648e-03 2.91262148e-03 5.82524296e-03
      2.03883499e-02 0. 0. 1.94174761e-03 3.88349523e-03 5.82524296e-03
      0. 0. 0. 9.70873795e-03 5.82524296e-03 9.70873807e-04
      1.94174761e-03 1.06796119e-02 1.94174761e-03 2.91262148e-03
      9.70873807e-04 9.70873807e-04 2.33009718e-02 1.94174761e-03
      3.88349523e-03 0. 1.94174761e-03 6.79611648e-03 1.94174761e-03
      9.70873807e-04 1.35922330e-02 0. 3.88349523e-03 1.94174761e-03
      1.94174761e-03 9.70873807e-04 6.79611648e-03 4.85436898e-03
      2.91262148e-03 2.91262148e-03 1.94174761e-03 0. 0. 1.94174761e-03
      3.88349523e-03 1.26213599e-02 1.26213599e-02 0. 1.16504859e-02
      7.76699046e-03 0. 1.35922330e-02 2.91262148e-03 9.70873807e-04
      9.70873795e-03 1.94174761e-03 2.91262148e-03 3.88349523e-03
      5.82524296e-03 9.70873807e-04 3.88349523e-03 9.70873807e-04
      9.70873807e-04 2.91262148e-03 0. 7.76699046e-03 5.82524296e-03 0.
      1.06796119e-02 9.70873807e-04 0. 3.88349523e-03 9.70873807e-04
      9.70873807e-04 3.88349523e-03 2.91262148e-03 1.94174761e-03
      6.79611648e-03 2.91262148e-03 7.76699046e-03 1.94174761e-03
      9.70873807e-04 1.94174761e-03 5.82524296e-03 1.94174761e-03 0.
      1.26213599e-02 2.52427198e-02 1.94174761e-03 1.26213599e-02 0. 0.
      6.79611648e-03 2.91262148e-03 7.76699046e-03 8.73786397e-03
      1.45631069e-02 0. 4.85436898e-03 1.94174761e-03 1.94174761e-03
      4.85436898e-03 5.82524296e-03 9.70873807e-04 0. 9.70873807e-04
      5.82524296e-03 2.91262148e-03 1.94174761e-03 4.85436898e-03 0.
      4.85436898e-03 5.82524296e-03 9.70873807e-04 6.79611648e-03 0.</_>
    <_>
      1.16550119e-03 1.16550121e-02 6.99300691e-03 1.63170174e-02
      5.82750607e-03 1.16550119e-03 3.49650346e-03 1.16550119e-03
      6.99300691e-03 1.16550119e-03 2.44755242e-02 5.82750607e-03
      4.66200477e-03 5.82750607e-03 3.49650346e-03 1.16550119e-03
      3.49650346e-03 4.66200477e-03 2.33100238e-03 2.21445225e-02
      8.15850869e-03 8.15850869e-03 4.66200477e-03 1.16550119e-03
      1.04895104e-02 2.33100238e-03 2.33100238e-03 8.15850869e-03
      4.66200477e-03 0. 1.16550119e-03 2.33100238e-03 2.33100238e-03
      1.16550119e-03 4.66200477e-03 2.33100238e-03 1.51515156e-02
      6.99300691e-03 8.15850869e-03 1.16550119e-03 1.16550119e-03
      1.16550119e-03 1.63170174e-02 1.39860138e-02 3.49650346e-03
      3.49650346e-03 1.16550119e-03 1.16550119e-03 3.49650346e-03
      6.99300691e-03 9.32400953e-03 1.16550119e-03 2.33100243e-02 0.
      2.91375294e-02 0. 1.16550121e-02 6.99300691e-03 0. 2.33100238e-03
      4.66200477e-03 5.82750607e-03 1.16550119e-03 0. 0. 6.99300691e-03
      1.16550119e-03 9.32400953e-03 2.33100238e-03 6.99300691e-03
      1.16550119e-03 0. 2.33100238e-03 5.82750607e-03 4.66200477e-03
      1.74825173e-02 3.49650346e-03 1.51515156e-02 5.82750607e-03
      1.16550119e-03 0. 3.49650346e-03 1.16550119e-03 1.16550119e-03 0.
      1.16550119e-03 0. 2.33100238e-03 2.79720277e-02 0. 4.66200477e-03
      2.33100238e-03 1.16550119e-03 1.63170174e-02 5.82750607e-03 0. 0.
      4.66200477e-03 5.82750607e-03 2.33100238e-03 3.49650346e-03
      6.99300691e-03 2.33100238e-03 1.16550119e-03 5.82750607e-03 0.
      1.74825173e-02 0. 0. 3.49650346e-03 2.33100238e-03 3.03030312e-02
      8.15850869e-03 9.32400953e-03 1.51515156e-02 0. 1.16550121e-02
      3.49650346e-03 5.82750607e-03 2.33100238e-03 1.16550121e-02
      6.99300691e-03 2.33100238e-03 2.33100238e-03 1.16550119e-03 0. 0.
      0. 5.82750607e-03 6.99300691e-03 9.32400953e-03 0. 8.15850869e-03
      1.16550119e-03 4.66200477e-03 9.32400953e-03 3.49650346e-03
      2.33100238e-03 9.32400953e-03 0. 4.66200477e-03 1.16550119e-03
      3.49650346e-03 3.49650346e-03 1.16550121e-02 0. 2.33100238e-03 0.
      0. 6.99300691e-03 1.04895104e-02 1.16550121e-02 3.49650346e-03 0.
      1.16550119e-03 4.66200477e-03 4.66200477e-03 0. 1.16550119e-03
      4.66200477e-03 3.49650346e-03 3.49650346e-03 6.99300691e-03
      4.66200477e-03 0. 0. 2.33100238e-03 1.51515156e-02 0. 0.
      6.99300691e-03 2.33100243e-02 6.99300691e-03 1.74825173e-02 0. 0.
      3.49650346e-03 3.49650346e-03 5.82750607e-03 1.04895104e-02
      5.82750607e-03 0. 3.49650346e-03 1.16550119e-03 0. 0.
      3.49650346e-03 0. 0. 0. 1.04895104e-02 4.66200477e-03
      1.04895104e-02 4.66200477e-03 0. 4.66200477e-03 1.16550119e-03
      1.16550119e-03 1.16550119e-03 1.16550119e-03</_>
    <_>
      0. 1.50375944e-02 1.25313280e-02 5.01253130e-03 3.75939859e-03
      1.25313282e-03 7.51879718e-03 3.75939859e-03 1.25313282e-03
      3.75939859e-03 2.38095243e-02 6.26566401e-03 0. 1.25313280e-02
      7.51879718e-03 7.51879718e-03 0. 5.01253130e-03 0. 3.75939831e-02
      1.37844607e-02 1.00250626e-02 6.26566401e-03 1.25313282e-03
      8.77192989e-03 2.50626565e-03 1.25313282e-03 7.51879718e-03 0.
      1.25313282e-03 1.12781953e-02 1.25313282e-03 7.51879718e-03
      1.12781953e-02 1.50375944e-02 1.12781953e-02 2.13032588e-02
      6.26566401e-03 2.75689214e-02 0. 1.75438598e-02 1.25313282e-03
      6.26566401e-03 3.50877196e-02 1.25313282e-03 3.75939859e-03 0.
      1.25313282e-03 0. 2.50626565e-03 5.01253130e-03 1.25313282e-03
      1.25313280e-02 0. 1.00250626e-02 2.50626565e-03 1.25313282e-03
      1.12781953e-02 0. 0. 2.50626565e-03 1.12781953e-02 3.75939859e-03
      1.25313282e-03 0. 1.25313282e-03 5.01253130e-03 3.75939859e-03
      3.75939859e-03 5.01253130e-03 1.25313282e-03 0. 2.50626565e-03
      5.01253130e-03 2.50626565e-03 1.37844607e-02 0. 1.62907261e-02
      1.25313282e-03 0. 0. 2.50626565e-03 5.01253130e-03 2.50626565e-03
      0. 0. 1.25313282e-03 6.26566401e-03 2.50626560e-02 1.25313282e-03
      0. 2.50626565e-03 1.25313280e-02 0. 1.25313282e-03 0.
      2.50626565e-03 2.63157897e-02 8.77192989e-03 1.25313282e-03
      2.50626565e-03 1.50375944e-02 6.26566401e-03 3.75939859e-03
      2.50626565e-03 1.25313282e-03 2.00501252e-02 1.25313282e-03
      1.25313282e-03 0. 1.25313282e-03 5.01253130e-03 2.50626565e-03
      7.51879718e-03 6.26566401e-03 0. 8.77192989e-03 1.25313282e-03
      8.77192989e-03 1.25313282e-03 7.51879718e-03 7.51879718e-03
      3.75939859e-03 0. 1.25313280e-02 0. 1.25313282e-03 1.25313282e-03
      1.25313282e-03 6.26566401e-03 0. 3.75939859e-03 2.25563906e-02
      1.25313282e-03 1.25313282e-03 5.01253130e-03 5.01253130e-03 0.
      3.75939859e-03 0. 2.50626565e-03 5.01253130e-03 1.12781953e-02
      5.01253130e-03 5.01253130e-03 0. 1.25313282e-03 2.50626565e-03
      1.25313282e-03 1.25313280e-02 3.75939859e-03 0. 1.25313282e-03
      2.50626565e-03 1.25313282e-03 7.51879718e-03 0. 1.25313282e-03
      2.50626565e-03 3.75939859e-03 0. 2.50626565e-03 3.75939859e-03
      3.75939859e-03 0. 0. 2.50626565e-03 1.62907261e-02 3.75939859e-03
      0. 7.51879718e-03 1.00250626e-02 1.25313282e-03 5.01253130e-03
      3.75939859e-03 0. 0. 2.50626565e-03 3.75939859e-03 0.
      1.25313280e-02 5.01253130e-03 3.75939859e-03 1.25313282e-03 0.
      2.50626565e-03 1.12781953e-02 2.50626565e-03 0. 2.50626565e-03
      2.50626565e-03 5.01253130e-03 3.75939859e-03 7.51879718e-03 0.
      3.75939859e-03 0. 5.01253130e-03 2.50626565e-03 0.</_>
    <_>
      0. 3.66699696e-02 6.93756202e-03 9.91080306e-04 1.98216061e-03
      9.91080306e-04 2.97324080e-03 1.98216061e-03 1.98216061e-03
      1.98216061e-03 1.78394448e-02 1.98216061e-03 3.96432122e-03
      1.98216061e-03 2.97324080e-03 1.98216061e-03 1.98216061e-03
      2.97324080e-03 9.91080306e-04 2.67591681e-02 3.46878096e-02
      6.93756202e-03 1.98216061e-03 0. 1.98216061e-03 9.91080306e-04
      2.97324080e-03 4.95540164e-03 0. 9.91080306e-04 3.96432122e-03
      9.91080306e-04 0. 1.09018832e-02 2.37859264e-02 1.09018832e-02
      1.68483648e-02 6.93756202e-03 1.78394448e-02 1.98216061e-03
      8.91972240e-03 2.97324080e-03 1.88305266e-02 1.98216066e-02
      1.09018832e-02 3.96432122e-03 9.91080306e-04 9.91080306e-04 0.
      6.93756202e-03 1.09018832e-02 9.91080306e-04 2.27948464e-02 0.
      1.48662049e-02 9.91080306e-04 5.94648160e-03 1.48662049e-02 0. 0.
      3.96432122e-03 1.98216061e-03 3.96432122e-03 0. 1.98216061e-03
      5.94648160e-03 3.96432122e-03 2.97324080e-03 4.95540164e-03
      9.91080306e-04 2.97324080e-03 0. 9.91080306e-04 8.91972240e-03
      1.98216061e-03 1.28840441e-02 1.98216061e-03 1.48662049e-02
      9.91080329e-03 9.91080306e-04 0. 6.93756202e-03 4.95540164e-03 0.
      0. 2.97324080e-03 0. 9.91080306e-04 1.78394448e-02 0.
      9.91080306e-04 9.91080306e-04 5.94648160e-03 6.93756202e-03 0.
      9.91080306e-04 0. 8.91972240e-03 6.93756202e-03 9.91080329e-03
      2.97324080e-03 2.27948464e-02 1.98216061e-03 2.97324080e-03 0. 0.
      1.78394448e-02 5.94648160e-03 4.95540164e-03 0. 4.95540164e-03
      9.91080329e-03 1.98216061e-03 5.94648160e-03 4.95540164e-03
      1.98216061e-03 4.95540164e-03 2.97324080e-03 1.98216061e-03
      9.91080306e-04 4.95540164e-03 4.95540164e-03 2.97324080e-03
      1.98216061e-03 9.91080306e-04 0. 0. 9.91080306e-04 9.91080306e-04
      1.18929632e-02 4.95540164e-03 6.93756202e-03 8.91972240e-03 0.
      9.91080306e-04 1.28840441e-02 1.98216061e-03 2.97324080e-03
      4.95540164e-03 0. 1.98216061e-03 4.95540164e-03 3.96432122e-03
      9.91080306e-04 4.95540164e-03 0. 1.98216061e-03 6.93756202e-03 0.
      1.58572849e-02 2.97324080e-03 1.98216061e-03 4.95540164e-03
      4.95540164e-03 0. 1.58572849e-02 3.96432122e-03 9.91080306e-04
      2.97324080e-03 1.98216061e-03 0. 5.94648160e-03 3.96432122e-03
      6.93756202e-03 1.98216061e-03 0. 2.97324080e-03 1.38751240e-02
      9.91080306e-04 9.91080306e-04 1.78394448e-02 1.28840441e-02
      4.95540164e-03 1.18929632e-02 4.95540164e-03 0. 9.91080306e-04
      1.98216061e-03 7.92864244e-03 4.95540164e-03 1.28840441e-02
      9.91080306e-04 1.98216061e-03 0. 2.97324080e-03 0. 2.97324080e-03
      1.98216061e-03 9.91080306e-04 0. 1.98216061e-03 5.94648160e-03
      5.94648160e-03 6.93756202e-03 0. 1.98216061e-03 2.97324080e-03
      4.95540164e-03 4.95540164e-03 0.</_>
    <_>
      1.15606934e-03 2.65895948e-02 2.31213868e-03 9.24855471e-03 0. 0.
      5.78034669e-03 3.46820801e-03 1.15606934e-03 2.31213868e-03 0.
      3.46820801e-03 1.04046240e-02 1.15606934e-03 8.09248537e-03
      1.15606934e-03 1.15606934e-03 4.62427735e-03 0. 1.15606934e-02
      2.65895948e-02 1.96531788e-02 4.62427735e-03 1.15606934e-03
      5.78034669e-03 1.15606934e-03 2.31213868e-03 1.84971094e-02
      1.15606934e-03 0. 0. 1.15606934e-03 0. 9.24855471e-03
      1.15606934e-02 4.62427735e-03 1.61849707e-02 9.24855471e-03
      2.19653174e-02 0. 1.84971094e-02 0. 1.84971094e-02 2.08092481e-02
      4.62427735e-03 1.15606934e-03 0. 2.31213868e-03 4.62427735e-03
      1.15606934e-03 8.09248537e-03 4.62427735e-03 2.31213868e-02
      2.31213868e-03 3.35260108e-02 3.46820801e-03 8.09248537e-03
      5.78034669e-03 1.15606934e-03 0. 0. 5.78034669e-03 1.15606934e-03
      0. 0. 1.15606934e-03 2.31213868e-03 4.62427735e-03 5.78034669e-03
      2.31213868e-03 4.62427735e-03 0. 6.93641603e-03 9.24855471e-03
      3.46820801e-03 1.27167627e-02 2.31213868e-03 8.09248537e-03
      3.46820801e-03 0. 0. 2.31213868e-03 2.31213868e-03 3.46820801e-03
      0. 1.15606934e-03 3.46820801e-03 2.31213868e-03 1.15606934e-02 0.
      0. 3.46820801e-03 2.31213868e-03 2.31213868e-03 1.15606934e-03 0.
      1.15606934e-03 6.93641603e-03 6.93641603e-03 1.15606934e-03
      1.15606934e-03 8.09248537e-03 3.46820801e-03 2.31213868e-03
      4.62427735e-03 0. 2.19653174e-02 0. 1.15606934e-03 4.62427735e-03
      2.31213868e-03 3.46820801e-03 5.78034669e-03 4.62427735e-03
      6.93641603e-03 0. 6.93641603e-03 5.78034669e-03 1.15606934e-03 0.
      6.93641603e-03 3.46820801e-03 2.31213868e-03 0. 0. 0.
      1.15606934e-03 0. 6.93641603e-03 1.15606934e-02 6.93641603e-03
      2.31213868e-03 9.24855471e-03 4.62427735e-03 0. 1.61849707e-02
      1.15606934e-03 0. 1.04046240e-02 0. 1.50289014e-02 4.62427735e-03
      5.78034669e-03 1.15606934e-03 4.62427735e-03 1.15606934e-03
      2.31213868e-03 2.31213868e-03 0. 5.78034669e-03 2.31213868e-03
      4.62427735e-03 3.46820801e-03 2.31213868e-03 1.15606934e-03
      6.93641603e-03 4.62427735e-03 1.15606934e-03 2.31213868e-03 0.
      4.62427735e-03 1.61849707e-02 5.78034669e-03 1.50289014e-02 0.
      1.15606934e-03 2.31213868e-03 1.61849707e-02 1.15606934e-03 0.
      1.27167627e-02 2.42774561e-02 5.78034669e-03 2.65895948e-02 0. 0.
      4.62427735e-03 2.31213868e-03 2.31213868e-03 5.78034669e-03
      1.27167627e-02 0. 4.62427735e-03 0. 0. 1.15606934e-03
      6.93641603e-03 3.46820801e-03 0. 1.15606934e-03 8.09248537e-03
      2.31213868e-03 9.24855471e-03 9.24855471e-03 1.15606934e-03
      2.31213868e-03 3.46820801e-03 8.09248537e-03 3.46820801e-03 0.</_>
    <_>
      0. 2.99823619e-02 1.76366828e-02 5.29100513e-03 0. 0.
      3.52733675e-03 5.29100513e-03 5.29100513e-03 0. 7.93650746e-02
      3.52733675e-03 0. 1.41093470e-02 1.76366838e-03 7.05467351e-03 0.
      1.76366838e-03 1.76366838e-03 7.40740746e-02 1.94003526e-02
      8.81834142e-03 1.76366838e-03 0. 0. 0. 3.52733675e-03
      2.11640205e-02 1.76366838e-03 0. 3.52733675e-03 1.76366838e-03 0.
      1.23456791e-02 5.29100513e-03 1.76366838e-03 3.52733675e-03
      7.05467351e-03 7.05467351e-03 1.76366838e-03 1.76366828e-02
      3.52733675e-03 1.05820103e-02 7.05467351e-03 0. 7.05467351e-03 0.
      1.76366838e-03 0. 1.76366838e-03 1.76366838e-03 1.76366838e-03
      8.81834142e-03 5.29100513e-03 8.81834142e-03 0. 5.29100513e-03
      8.81834142e-03 0. 1.76366838e-03 5.29100513e-03 5.29100513e-03
      1.76366838e-03 3.52733675e-03 0. 0. 1.58730149e-02 7.05467351e-03
      3.52733675e-03 1.76366838e-03 0. 3.52733675e-03 1.76366838e-03
      1.41093470e-02 0. 1.23456791e-02 3.52733675e-03 1.05820103e-02
      5.29100513e-03 0. 0. 0. 1.76366838e-03 3.52733675e-03 0. 0.
      1.76366838e-03 3.52733675e-03 1.94003526e-02 0. 0. 0.
      3.52733675e-03 0. 0. 0. 0. 3.52733675e-03 1.76366838e-03
      3.52733675e-03 3.52733675e-03 1.76366838e-03 1.23456791e-02
      1.76366838e-03 8.81834142e-03 1.76366838e-03 3.52733675e-03
      3.52733675e-03 1.76366838e-03 0. 1.76366838e-03 2.11640205e-02
      5.29100513e-03 1.76366838e-03 1.58730149e-02 0. 5.29100513e-03 0.
      1.23456791e-02 0. 5.29100513e-03 5.29100513e-03 0. 1.76366838e-03
      1.76366838e-03 3.52733675e-03 0. 1.76366838e-03 1.76366838e-03
      3.52733675e-03 3.52733675e-03 5.29100513e-03 1.05820103e-02 0.
      3.52733675e-03 1.76366838e-03 1.76366838e-03 1.76366838e-03
      1.76366838e-03 0. 1.76366838e-03 0. 7.05467351e-03 1.76366838e-03
      2.64550261e-02 1.76366838e-03 1.76366838e-03 7.05467351e-03 0.
      1.76366838e-03 1.76366838e-03 7.05467351e-03 1.76366838e-03
      1.76366838e-03 0. 1.76366838e-03 1.76366838e-03 0. 0.
      1.76366838e-03 0. 1.76366838e-03 1.76366838e-03 8.81834142e-03 0.
      0. 1.76366838e-03 5.29100522e-02 0. 0. 1.05820103e-02
      1.05820103e-02 5.29100513e-03 1.41093470e-02 8.81834142e-03 0.
      1.76366838e-03 5.29100513e-03 5.29100513e-03 5.29100513e-03 0. 0.
      5.29100513e-03 1.76366838e-03 0. 0. 1.58730149e-02 0. 0. 0. 0.
      3.52733675e-03 7.05467351e-03 8.81834142e-03 0. 5.29100513e-03
      7.05467351e-03 3.52733675e-03 1.76366838e-03 1.76366838e-03</_>
    <_>
      1.61030598e-03 4.02576476e-02 8.05152953e-03 8.05152953e-03 0. 0.
      2.09339783e-02 3.22061195e-03 4.83091781e-03 0. 6.60225451e-02 0.
      3.22061195e-03 6.44122390e-03 3.22061195e-03 0. 3.22061195e-03
      4.83091781e-03 0. 5.47504015e-02 2.41545904e-02 8.05152953e-03
      3.22061195e-03 0. 4.83091781e-03 1.61030598e-03 3.22061195e-03
      1.12721417e-02 1.61030598e-03 0. 4.83091781e-03 1.61030598e-03 0.
      3.22061195e-03 2.25442834e-02 4.83091781e-03 4.83091781e-03
      1.61030598e-03 8.05152953e-03 1.61030598e-03 1.77133661e-02
      4.83091781e-03 1.28824478e-02 1.61030598e-03 3.22061195e-03 0.
      3.22061195e-03 1.61030598e-03 0. 4.83091781e-03 6.44122390e-03
      8.05152953e-03 1.44927539e-02 4.83091781e-03 1.61030591e-02 0.
      1.12721417e-02 6.44122390e-03 1.61030598e-03 1.61030598e-03 0.
      4.83091781e-03 1.61030598e-03 0. 0. 0. 6.44122390e-03
      3.22061195e-03 1.61030598e-03 3.22061195e-03 0. 0. 3.22061195e-03
      8.05152953e-03 1.61030598e-03 8.05152953e-03 4.83091781e-03
      4.83091781e-03 8.05152953e-03 0. 0. 1.61030598e-03 1.61030598e-03
      3.22061195e-03 0. 0. 4.83091781e-03 0. 1.44927539e-02 0.
      1.61030598e-03 3.22061195e-03 0. 3.22061195e-03 0. 0.
      6.44122390e-03 4.83091781e-03 0. 1.61030598e-03 4.83091781e-03
      1.61030598e-03 9.66183562e-03 0. 6.44122390e-03 0. 3.22061195e-03
      1.28824478e-02 3.22061195e-03 0. 8.05152953e-03 1.61030591e-02
      4.83091781e-03 3.22061195e-03 9.66183562e-03 0. 8.05152953e-03
      1.61030598e-03 8.05152953e-03 0. 6.44122390e-03 1.28824478e-02 0.
      8.05152953e-03 0. 1.61030598e-03 0. 1.61030598e-03 9.66183562e-03
      1.12721417e-02 0. 1.61030598e-03 1.28824478e-02 1.61030598e-03
      3.22061195e-03 4.83091781e-03 0. 1.61030598e-03 4.83091781e-03 0.
      9.66183562e-03 0. 1.61030598e-03 1.61030598e-03 2.89855078e-02
      3.22061195e-03 0. 6.44122390e-03 0. 1.61030598e-03 0.
      1.12721417e-02 0. 1.61030598e-03 0. 1.61030598e-03 4.83091781e-03
      3.22061195e-03 3.22061195e-03 0. 1.61030598e-03 1.61030598e-03
      4.83091781e-03 4.83091781e-03 0. 0. 3.22061195e-03 3.70370373e-02
      0. 0. 4.83091781e-03 8.05152953e-03 8.05152953e-03 8.05152953e-03
      1.61030591e-02 0. 6.44122390e-03 4.83091781e-03 3.22061195e-03
      3.22061195e-03 9.66183562e-03 0. 1.12721417e-02 0. 0. 0.
      4.83091781e-03 1.61030598e-03 0. 0. 0. 4.83091781e-03
      9.66183562e-03 3.22061195e-03 0. 3.22061195e-03 3.22061195e-03
      1.61030598e-03 1.61030598e-03 0.</_>
    <_>
      1.38504151e-03 1.80055387e-02 1.52354566e-02 1.10803321e-02
      1.38504151e-03 2.77008303e-03 1.52354566e-02 1.38504151e-03
      1.38504151e-03 1.38504151e-03 2.77008303e-02 1.38504151e-03
      2.77008303e-03 9.69529059e-03 4.15512454e-03 0. 9.69529059e-03
      2.77008303e-03 0. 7.47922435e-02 1.93905812e-02 4.15512454e-03
      2.77008303e-03 2.77008303e-03 1.10803321e-02 2.77008303e-03
      4.15512454e-03 1.24653736e-02 1.38504151e-03 1.38504151e-03
      2.77008303e-03 0. 0. 4.15512454e-03 2.07756236e-02 5.54016605e-03
      1.38504151e-03 2.77008303e-03 9.69529059e-03 1.38504151e-03
      1.38504151e-02 0. 4.15512454e-03 1.24653736e-02 4.15512454e-03
      1.38504151e-03 1.38504151e-03 0. 2.77008303e-03 5.54016605e-03
      1.38504151e-03 4.15512454e-03 9.69529059e-03 9.69529059e-03
      1.80055387e-02 0. 6.92520756e-03 8.31024908e-03 0. 1.38504151e-03
      2.77008303e-03 9.69529059e-03 1.38504151e-03 2.77008303e-03 0. 0.
      2.77008303e-03 6.92520756e-03 5.54016605e-03 2.77008303e-03
      2.77008303e-03 0. 1.38504151e-03 1.38504151e-03 4.15512454e-03
      2.90858708e-02 1.38504151e-03 1.24653736e-02 4.15512454e-03
      1.38504151e-03 0. 1.38504151e-03 4.15512454e-03 8.31024908e-03 0.
      1.38504151e-03 0. 0. 2.21606642e-02 0. 0. 4.15512454e-03
      1.38504151e-03 8.31024908e-03 0. 0. 4.15512454e-03 4.15512454e-03
      2.77008303e-03 1.38504151e-03 0. 5.54016605e-03 4.15512454e-03
      4.15512454e-03 0. 4.15512454e-03 6.92520756e-03 4.15512454e-03 0.
      8.31024908e-03 2.77008303e-03 2.77008303e-03 1.52354566e-02
      1.38504151e-03 8.31024908e-03 0. 2.77008303e-03 2.77008303e-03
      2.77008303e-03 2.77008303e-03 4.15512454e-03 1.52354566e-02
      2.77008303e-03 0. 1.38504151e-03 0. 0. 0. 5.54016605e-03
      9.69529059e-03 2.77008303e-03 0. 1.10803321e-02 0. 0.
      4.15512454e-03 4.15512454e-03 1.38504151e-03 1.38504151e-03
      2.77008303e-03 1.10803321e-02 1.38504151e-03 2.77008303e-03 0.
      2.77008303e-02 2.77008303e-03 4.15512454e-03 5.54016605e-03 0.
      5.54016605e-03 6.92520756e-03 2.77008303e-03 4.15512454e-03 0. 0.
      1.38504151e-03 2.77008303e-03 0. 4.15512454e-03 1.38504151e-03
      1.38504151e-03 1.38504151e-03 8.31024908e-03 0. 0. 0.
      4.15512454e-03 5.95567860e-02 1.38504151e-03 1.38504151e-03
      9.69529059e-03 6.92520756e-03 4.15512454e-03 9.69529059e-03
      4.15512454e-03 1.38504151e-03 1.38504151e-03 2.77008303e-03
      4.15512454e-03 6.92520756e-03 4.15512454e-03 0. 9.69529059e-03 0.
      0. 0. 5.54016605e-03 2.77008303e-03 0. 2.77008303e-03
      4.15512454e-03 1.38504151e-03 6.92520756e-03 4.15512454e-03
      5.54016605e-03 4.15512454e-03 6.92520756e-03 4.15512454e-03
      2.77008303e-03 1.38504151e-03</_>
    <_>
      1.74825173e-03 4.37062941e-02 6.99300691e-03 6.99300691e-03 0. 0.
      1.39860138e-02 1.74825173e-03 1.74825173e-03 1.74825173e-03
      6.11888096e-02 3.49650346e-03 3.49650346e-03 3.49650346e-03
      3.49650346e-03 3.49650346e-03 1.74825173e-03 1.22377621e-02 0.
      9.09090936e-02 1.22377621e-02 8.74125864e-03 0. 0. 6.99300691e-03
      1.74825173e-03 5.24475519e-03 1.74825173e-02 1.74825173e-03
      1.74825173e-03 1.74825173e-03 0. 1.74825173e-03 5.24475519e-03
      1.74825173e-03 0. 1.04895104e-02 0. 1.04895104e-02 1.74825173e-03
      1.92307681e-02 0. 8.74125864e-03 5.24475519e-03 0. 5.24475519e-03
      1.74825173e-03 0. 1.74825173e-03 1.74825173e-03 5.24475519e-03
      1.04895104e-02 8.74125864e-03 1.74825173e-03 8.74125864e-03
      5.24475519e-03 1.74825173e-03 6.99300691e-03 0. 0. 3.49650346e-03
      1.74825173e-03 0. 1.74825173e-03 0. 0. 1.74825173e-02
      3.49650346e-03 3.49650346e-03 5.24475519e-03 1.74825173e-03
      1.74825173e-03 1.74825173e-03 0. 1.74825173e-03 1.57342665e-02
      3.49650346e-03 3.49650346e-03 5.24475519e-03 0. 0. 0. 0.
      1.74825173e-03 0. 1.74825173e-03 3.49650346e-03 1.74825173e-03
      2.09790207e-02 0. 1.74825173e-03 3.49650346e-03 5.24475519e-03
      5.24475519e-03 0. 0. 0. 0. 3.49650346e-03 6.99300691e-03 0. 0.
      2.09790207e-02 1.74825173e-03 0. 0. 3.49650346e-03 6.99300691e-03
      1.74825173e-03 0. 0. 1.39860138e-02 1.39860138e-02 5.24475519e-03
      1.04895104e-02 0. 1.22377621e-02 6.99300691e-03 5.24475519e-03 0.
      6.99300691e-03 1.57342665e-02 0. 3.49650346e-03 0. 0. 0.
      1.74825173e-03 1.74825173e-03 1.74825173e-03 3.49650346e-03 0.
      6.99300691e-03 1.74825173e-03 0. 6.99300691e-03 0. 0.
      1.74825173e-03 0. 6.99300691e-03 5.24475519e-03 5.24475519e-03
      1.74825173e-03 1.92307681e-02 0. 5.24475519e-03 8.74125864e-03 0.
      3.49650346e-03 5.24475519e-03 6.99300691e-03 0. 0. 0. 0. 0. 0.
      1.74825173e-03 1.74825173e-03 5.24475519e-03 3.49650346e-03
      3.49650346e-03 5.24475519e-03 0. 3.49650346e-03 0. 4.19580415e-02
      1.74825173e-03 0. 3.49650346e-03 0. 3.49650346e-03 6.99300691e-03
      1.22377621e-02 0. 5.24475519e-03 0. 3.49650346e-03 3.49650346e-03
      0. 0. 1.04895104e-02 1.74825173e-03 0. 0. 1.74825173e-02 0. 0. 0.
      1.22377621e-02 3.49650346e-03 1.39860138e-02 3.49650346e-03 0.
      2.09790207e-02 3.49650346e-03 1.74825173e-03 6.99300691e-03
      1.74825173e-03</_>
    <_>
      0. 2.86396183e-02 7.15990458e-03 1.19331749e-02 0. 1.19331747e-03
      1.31264925e-02 2.38663494e-03 2.38663494e-03 3.57995229e-03
      4.29594293e-02 3.57995229e-03 1.19331747e-03 1.19331747e-03
      8.35322216e-03 1.19331747e-03 2.38663494e-03 3.57995229e-03
      1.19331747e-03 6.20525070e-02 7.15990458e-03 5.96658746e-03
      4.77326987e-03 0. 8.35322216e-03 4.77326987e-03 4.77326987e-03
      1.07398573e-02 0. 0. 5.96658746e-03 0. 2.38663494e-03
      9.54653975e-03 7.15990458e-03 1.19331747e-03 1.31264925e-02
      5.96658746e-03 1.78997628e-02 2.38663494e-03 2.86396183e-02 0.
      1.07398573e-02 1.19331749e-02 1.19331747e-03 1.19331747e-03
      1.19331747e-03 0. 0. 7.15990458e-03 2.38663494e-03 1.19331747e-03
      1.19331749e-02 0. 4.77326987e-03 0. 1.43198092e-02 1.31264925e-02
      0. 1.19331747e-03 3.57995229e-03 5.96658746e-03 0. 0. 0.
      3.57995229e-03 5.96658746e-03 2.38663494e-03 2.38663494e-03
      5.96658746e-03 1.19331747e-03 2.38663494e-03 2.38663494e-03
      4.77326987e-03 1.19331747e-03 1.19331749e-02 3.57995229e-03
      4.77326987e-03 1.19331747e-03 0. 0. 1.19331747e-03 5.96658746e-03
      2.38663494e-03 0. 0. 1.19331747e-03 2.38663494e-03 2.26730313e-02
      0. 0. 0. 2.38663494e-03 3.57995229e-03 2.38663494e-03 0. 0.
      2.86396183e-02 2.38663494e-03 2.38663494e-03 4.77326987e-03
      9.54653975e-03 3.57995229e-03 3.57995229e-03 0. 1.19331747e-03
      8.35322216e-03 5.96658746e-03 4.77326987e-03 3.57995229e-03 0.
      7.15990458e-03 5.96658746e-03 1.19331747e-03 9.54653975e-03 0.
      3.57995229e-03 4.77326987e-03 3.57995229e-03 0. 1.19331747e-03
      1.31264925e-02 3.57995229e-03 2.38663494e-03 2.38663494e-03 0. 0.
      0. 4.77326987e-03 7.15990458e-03 1.19331747e-03 1.19331747e-03
      3.46062072e-02 2.38663494e-03 3.57995229e-03 1.07398573e-02
      3.57995229e-03 2.38663494e-03 3.57995229e-03 1.19331747e-03
      1.07398573e-02 0. 3.57995229e-03 4.77326987e-03 2.38663498e-02 0.
      4.77326987e-03 5.96658746e-03 1.19331747e-03 9.54653975e-03
      4.77326987e-03 0. 1.19331747e-03 1.19331747e-03 1.19331747e-03
      2.38663494e-03 5.96658746e-03 1.19331747e-03 2.38663494e-03 0. 0.
      4.77326987e-03 4.77326987e-03 1.19331747e-03 0. 0. 0.
      5.36992848e-02 0. 2.38663494e-03 8.35322216e-03 4.77326987e-03
      1.19331747e-03 2.38663494e-03 7.15990458e-03 1.19331747e-03 0. 0.
      5.96658746e-03 7.15990458e-03 4.77326987e-03 1.19331747e-03
      1.19331749e-02 0. 1.19331747e-03 2.38663494e-03 7.15990458e-03
      1.19331747e-03 0. 3.57995229e-03 3.57995229e-03 4.77326987e-03
      5.96658746e-03 3.57995229e-03 0. 7.15990458e-03 3.57995229e-03
      2.38663494e-03 3.57995229e-03 0.</_>
    <_>
      0. 1.15740746e-02 1.50462966e-02 3.47222225e-03 0. 4.62962966e-03
      9.25925933e-03 1.15740742e-03 1.15740742e-03 1.15740742e-03
      3.81944440e-02 8.10185168e-03 5.78703731e-03 1.38888890e-02
      3.47222225e-03 0. 0. 9.25925933e-03 2.31481483e-03 5.43981493e-02
      3.70370373e-02 4.62962966e-03 2.31481483e-03 4.62962966e-03
      1.15740742e-03 3.47222225e-03 0. 1.73611119e-02 0. 0.
      2.31481483e-03 2.31481483e-03 1.15740742e-03 1.38888890e-02
      5.78703731e-03 3.47222225e-03 1.38888890e-02 8.10185168e-03
      9.25925933e-03 8.10185168e-03 2.77777780e-02 1.15740742e-03
      1.15740746e-02 1.15740746e-02 3.47222225e-03 1.15740742e-03
      3.47222225e-03 1.15740742e-03 0. 5.78703731e-03 3.47222225e-03
      2.31481483e-03 9.25925933e-03 2.31481483e-03 1.38888890e-02
      1.15740742e-03 1.04166670e-02 5.78703731e-03 1.15740742e-03 0.
      2.31481483e-03 5.78703731e-03 0. 2.31481483e-03 0. 0.
      2.31481483e-03 4.62962966e-03 1.15740742e-03 3.47222225e-03
      2.31481483e-03 0. 2.31481483e-03 1.50462966e-02 1.15740742e-03
      2.31481493e-02 1.15740746e-02 8.10185168e-03 2.31481483e-03
      2.31481483e-03 0. 1.15740742e-03 1.15740742e-03 3.47222225e-03 0.
      0. 3.47222225e-03 0. 2.43055560e-02 0. 1.15740742e-03
      2.31481483e-03 2.31481483e-03 4.62962966e-03 3.47222225e-03 0. 0.
      5.78703731e-03 5.78703731e-03 4.62962966e-03 5.78703731e-03
      2.31481483e-03 2.31481483e-03 2.31481483e-03 1.15740742e-03 0.
      8.10185168e-03 0. 1.15740742e-03 0. 2.31481483e-03 1.62037034e-02
      3.47222225e-03 0. 2.31481483e-03 2.31481483e-03 6.94444450e-03
      1.15740742e-03 3.47222225e-03 1.15740742e-03 6.94444450e-03
      2.31481483e-03 3.47222225e-03 2.31481483e-03 2.31481483e-03 0. 0.
      1.15740742e-03 6.94444450e-03 6.94444450e-03 1.62037034e-02
      3.47222225e-03 9.25925933e-03 3.47222225e-03 3.47222225e-03
      1.50462966e-02 1.15740742e-03 0. 1.15740742e-03 2.31481483e-03
      8.10185168e-03 3.47222225e-03 6.94444450e-03 1.15740742e-03
      1.62037034e-02 0. 1.15740742e-03 8.10185168e-03 0. 1.15740746e-02
      3.47222225e-03 3.47222225e-03 1.15740742e-03 0. 3.47222225e-03
      2.31481483e-03 2.31481483e-03 1.15740742e-03 1.15740742e-03
      5.78703731e-03 0. 2.31481483e-03 3.47222225e-03 3.47222225e-03 0.
      1.15740742e-03 1.15740742e-03 3.58796306e-02 0. 1.15740742e-03
      5.78703731e-03 2.43055560e-02 2.31481483e-03 3.47222225e-03 0. 0.
      1.15740746e-02 2.31481483e-03 4.62962966e-03 6.94444450e-03
      3.47222225e-03 1.15740742e-03 3.47222225e-03 0. 6.94444450e-03
      1.15740742e-03 5.78703731e-03 1.15740742e-03 0. 0. 1.15740742e-03
      3.47222225e-03 1.38888890e-02 1.27314813e-02 0. 2.31481483e-03
      6.94444450e-03 2.31481483e-03 0. 0.</_>
    <_>
      2.00000009e-03 2.20000017e-02 8.00000038e-03 1.20000001e-02 0.
      4.00000019e-03 0. 2.00000009e-03 2.00000009e-03 0. 7.60000050e-02
      2.00000009e-03 0. 2.00000009e-03 4.00000019e-03 4.00000019e-03
      2.00000009e-03 1.00000007e-02 2.00000009e-03 7.00000003e-02
      2.60000005e-02 0. 4.00000019e-03 0. 8.00000038e-03 0.
      2.00000009e-03 2.20000017e-02 0. 4.00000019e-03 0. 0.
      2.00000009e-03 8.00000038e-03 4.00000019e-03 2.00000009e-03
      1.00000007e-02 2.00000009e-03 6.00000005e-03 4.00000019e-03
      3.60000022e-02 2.00000009e-03 2.00000014e-02 2.00000009e-03
      2.00000009e-03 0. 2.00000009e-03 0. 0. 1.40000004e-02 0.
      2.00000009e-03 1.60000008e-02 0. 1.60000008e-02 0. 1.20000001e-02
      6.00000005e-03 2.00000009e-03 0. 2.00000009e-03 2.00000009e-03
      2.00000009e-03 4.00000019e-03 2.00000009e-03 0. 1.20000001e-02
      2.00000009e-03 2.00000009e-03 0. 2.00000009e-03 0. 2.00000009e-03
      6.00000005e-03 0. 6.00000005e-03 8.00000038e-03 4.00000019e-03
      8.00000038e-03 2.00000009e-03 0. 0. 0. 8.00000038e-03
      2.00000009e-03 0. 6.00000005e-03 2.00000009e-03 3.80000025e-02 0.
      2.00000009e-03 6.00000005e-03 6.00000005e-03 4.00000019e-03 0. 0.
      0. 0. 2.00000009e-03 6.00000005e-03 0. 0. 6.00000005e-03 0. 0. 0.
      2.00000009e-03 8.00000038e-03 0. 0. 6.00000005e-03 1.60000008e-02
      2.00000009e-03 0. 1.20000001e-02 0. 6.00000005e-03 6.00000005e-03
      1.40000004e-02 0. 6.00000005e-03 2.40000002e-02 2.00000009e-03
      2.00000009e-03 2.00000009e-03 4.00000019e-03 0. 0. 2.00000009e-03
      1.40000004e-02 8.00000038e-03 4.00000019e-03 2.80000009e-02
      6.00000005e-03 2.00000009e-03 1.40000004e-02 0. 2.00000009e-03 0.
      0. 6.00000005e-03 2.00000009e-03 0. 0. 1.00000007e-02 0. 0.
      2.00000009e-03 2.00000009e-03 2.00000009e-03 6.00000005e-03
      4.00000019e-03 4.00000019e-03 0. 0. 2.00000009e-03 0. 0. 0.
      4.00000019e-03 4.00000019e-03 4.00000019e-03 6.00000005e-03
      6.00000005e-03 0. 2.00000009e-03 0. 2.40000002e-02 0. 0.
      2.00000009e-03 0. 4.00000019e-03 6.00000005e-03 6.00000005e-03 0.
      6.00000005e-03 0. 6.00000005e-03 6.00000005e-03 0. 0.
      8.00000038e-03 2.00000009e-03 0. 2.00000009e-03 8.00000038e-03
      2.00000009e-03 0. 0. 2.00000009e-03 1.00000007e-02 1.60000008e-02
      6.00000005e-03 0. 2.00000009e-03 8.00000038e-03 2.00000009e-03 0.
      0.</_>
    <_>
      0. 9.14634112e-03 1.32113816e-02 8.13008100e-03 0. 1.01626012e-03
      1.42276417e-02 2.03252025e-03 2.03252025e-02 2.03252025e-03
      4.06504050e-03 8.13008100e-03 7.11382087e-03 1.21951215e-02
      5.08130062e-03 2.03252025e-03 0. 6.09756075e-03 3.04878037e-03
      2.03252025e-02 2.03252025e-02 6.09756075e-03 4.06504050e-03 0.
      6.09756075e-03 3.04878037e-03 7.11382087e-03 8.13008100e-03 0. 0.
      1.01626012e-03 1.01626012e-03 1.01626012e-03 4.06504050e-03
      8.13008100e-03 2.03252025e-03 1.52439019e-02 7.11382087e-03
      1.42276417e-02 1.01626012e-03 9.14634112e-03 2.03252025e-03
      8.13008100e-03 2.23577227e-02 1.01626012e-03 3.04878037e-03 0.
      1.01626012e-03 2.03252025e-03 5.08130062e-03 2.03252025e-03
      3.04878037e-03 2.13414617e-02 0. 4.97967452e-02 3.04878037e-03
      4.06504050e-03 1.11788614e-02 1.01626012e-03 0. 1.01626012e-03
      3.04878037e-03 0. 1.01626012e-03 1.01626012e-03 2.03252025e-03
      2.03252025e-03 1.01626012e-03 5.08130062e-03 2.03252025e-03
      2.03252025e-03 4.06504050e-03 3.04878037e-03 8.13008100e-03
      6.09756075e-03 1.93089433e-02 6.09756075e-03 6.09756075e-03
      5.08130062e-03 0. 0. 2.03252025e-03 1.01626012e-03 1.01626012e-03
      0. 5.08130062e-03 3.04878037e-03 1.01626012e-03 2.84552835e-02 0.
      1.01626012e-03 0. 1.21951215e-02 3.04878037e-03 1.01626012e-03 0.
      0. 6.09756075e-03 4.06504050e-03 5.08130062e-03 4.06504050e-03
      1.01626012e-02 5.08130062e-03 4.06504050e-03 0. 0. 3.25203240e-02
      2.03252025e-03 1.01626012e-03 1.01626012e-03 1.01626012e-03
      1.01626012e-03 9.14634112e-03 8.13008100e-03 5.08130062e-03 0.
      1.01626012e-03 2.03252025e-03 1.01626012e-03 0. 9.14634112e-03
      1.32113816e-02 1.01626012e-03 8.13008100e-03 0. 1.01626012e-03
      2.03252025e-03 0. 0. 3.04878037e-03 2.43902430e-02 0.
      5.08130062e-03 5.08130062e-03 2.03252025e-03 5.08130062e-03
      3.04878037e-03 1.01626012e-03 6.09756075e-03 0. 1.01626012e-02
      2.03252025e-03 6.09756075e-03 3.04878037e-03 2.54065022e-02 0. 0.
      3.04878037e-03 0. 3.04878037e-03 3.04878037e-03 0. 8.13008100e-03
      2.03252025e-03 2.03252025e-03 5.08130062e-03 5.08130062e-03
      1.01626012e-03 3.04878037e-03 0. 0. 1.32113816e-02 3.04878037e-03
      1.01626012e-02 0. 1.01626012e-03 0. 3.04878037e-02 0. 0.
      3.04878037e-03 4.77642268e-02 3.04878037e-03 3.04878037e-03 0.
      1.01626012e-03 1.21951215e-02 0. 0. 3.04878037e-03 8.13008100e-03
      1.01626012e-03 7.11382087e-03 0. 0. 7.11382087e-03 1.42276417e-02
      0. 0. 0. 5.08130062e-03 1.01626012e-03 1.01626012e-02
      1.01626012e-03 0. 0. 3.04878037e-03 1.01626012e-03 0. 0.</_>
    <_>
      2.08768272e-03 9.39457212e-03 2.19206680e-02 3.13152419e-03 0. 0.
      8.35073087e-03 2.08768272e-03 1.46137793e-02 1.04384136e-03
      2.08768272e-03 1.14822546e-02 9.39457212e-03 1.04384134e-02
      3.13152419e-03 1.04384136e-03 1.04384136e-03 7.30688963e-03
      7.30688963e-03 3.23590823e-02 3.13152419e-03 6.26304839e-03
      5.21920668e-03 0. 2.08768272e-03 2.08768272e-03 4.17536544e-03
      1.56576205e-02 0. 0. 2.08768272e-03 0. 0. 3.13152419e-03
      2.08768272e-03 1.04384136e-03 2.08768272e-03 7.30688963e-03
      7.30688963e-03 7.30688963e-03 9.39457212e-03 0. 9.39457212e-03
      1.35699380e-02 0. 0. 1.04384136e-03 1.04384136e-03 5.21920668e-03
      2.08768272e-03 5.21920668e-03 3.13152419e-03 3.13152410e-02
      1.04384136e-03 6.88935295e-02 1.04384136e-03 2.08768272e-03
      8.35073087e-03 1.04384136e-03 0. 2.08768272e-03 5.21920668e-03 0.
      0. 0. 0. 5.21920668e-03 3.13152419e-03 2.08768272e-03
      2.08768272e-03 0. 6.26304839e-03 0. 4.17536544e-03 0.
      2.50521936e-02 2.08768272e-03 6.26304839e-03 1.04384136e-03 0. 0.
      1.04384136e-03 0. 0. 0. 2.08768272e-03 0. 2.08768272e-03
      1.67014617e-02 0. 0. 0. 1.87891442e-02 2.08768272e-03
      1.04384136e-03 0. 0. 3.13152419e-03 6.26304839e-03 1.04384136e-03
      3.13152419e-03 5.21920668e-03 1.04384134e-02 2.08768272e-03
      1.04384136e-03 0. 5.42797521e-02 0. 2.08768272e-03 1.04384136e-03
      2.08768272e-03 4.17536544e-03 0. 8.35073087e-03 4.17536544e-03 0.
      6.26304839e-03 0. 2.08768272e-03 0. 0. 1.04384136e-03
      1.04384136e-03 3.13152419e-03 0. 0. 1.04384136e-03 0.
      1.04384136e-03 8.35073087e-03 2.19206680e-02 1.04384136e-03
      3.13152419e-03 3.13152419e-03 3.13152419e-03 8.35073087e-03
      2.08768272e-03 2.08768272e-03 2.08768272e-03 1.04384136e-03 0.
      1.04384136e-03 6.26304839e-03 1.04384136e-03 2.60960348e-02 0. 0.
      3.13152419e-03 0. 5.21920668e-03 5.21920668e-03 0. 4.17536544e-03
      0. 0. 0. 1.04384136e-03 1.04384136e-03 1.04384136e-03
      1.04384136e-03 3.13152419e-03 1.67014617e-02 7.30688963e-03
      7.30688963e-03 0. 0. 1.04384136e-03 5.21920696e-02 2.08768272e-03
      0. 9.39457212e-03 7.82881007e-02 5.21920668e-03 4.17536544e-03
      1.04384136e-03 0. 1.35699380e-02 2.08768272e-03 5.21920668e-03
      1.04384134e-02 7.30688963e-03 1.04384136e-03 3.13152419e-03 0. 0.
      1.56576205e-02 7.30688963e-03 0. 0. 0. 2.08768272e-03
      1.04384136e-03 4.17536544e-03 2.08768272e-03 0. 0. 0.
      6.26304839e-03 2.08768272e-03 0.</_>
    <_>
      1.37551583e-03 1.78817064e-02 1.23796426e-02 4.12654737e-03 0.
      2.75103166e-03 6.87757926e-03 2.75103166e-03 4.12654737e-03
      2.75103166e-03 2.47592852e-02 8.25309474e-03 6.87757926e-03
      4.12654737e-03 1.37551583e-03 5.50206332e-03 1.37551583e-03
      5.50206332e-03 0. 5.36451191e-02 2.75103170e-02 1.37551585e-02
      1.37551583e-03 0. 8.25309474e-03 1.37551583e-03 2.75103166e-03
      8.25309474e-03 0. 1.37551583e-03 4.12654737e-03 0. 1.37551583e-03
      2.33837683e-02 9.62861069e-03 1.37551583e-03 1.78817064e-02
      4.12654737e-03 3.02613489e-02 0. 1.78817064e-02 0. 6.87757926e-03
      2.75103170e-02 2.75103166e-03 1.37551583e-03 1.37551583e-03 0. 0.
      2.75103166e-03 9.62861069e-03 2.75103166e-03 1.10041266e-02
      1.37551583e-03 1.65061895e-02 1.37551583e-03 4.12654737e-03
      1.51306745e-02 0. 1.37551583e-03 2.75103166e-03 4.12654737e-03
      2.75103166e-03 0. 1.37551583e-03 1.37551583e-03 8.25309474e-03
      2.75103166e-03 1.37551585e-02 5.50206332e-03 2.75103166e-03 0.
      2.75103166e-03 5.50206332e-03 1.37551583e-03 2.20082533e-02
      1.37551583e-03 1.23796426e-02 2.75103166e-03 0. 0. 0.
      1.37551583e-03 2.75103166e-03 0. 1.37551583e-03 1.37551583e-03
      4.12654737e-03 1.65061895e-02 0. 1.37551583e-03 1.37551583e-03
      5.50206332e-03 2.75103166e-03 4.12654737e-03 0. 1.37551583e-03
      5.50206332e-03 2.75103166e-03 5.50206332e-03 4.12654737e-03
      1.10041266e-02 4.12654737e-03 8.25309474e-03 0. 0. 1.65061895e-02
      1.37551583e-03 2.75103166e-03 0. 1.37551583e-03 1.37551583e-03
      2.75103166e-03 9.62861069e-03 9.62861069e-03 0. 6.87757926e-03 0.
      5.50206332e-03 1.37551583e-03 6.87757926e-03 4.12654737e-03
      8.25309474e-03 0. 1.37551583e-03 0. 1.37551583e-03 5.50206332e-03
      4.12654737e-03 1.92572214e-02 5.50206332e-03 4.12654737e-03
      2.06327382e-02 1.37551583e-03 1.37551583e-03 1.37551585e-02
      1.37551583e-03 2.75103166e-03 2.75103166e-03 0. 0. 1.37551583e-03
      1.37551585e-02 2.75103166e-03 5.50206332e-03 4.12654737e-03 0.
      2.75103166e-03 1.37551583e-03 5.50206332e-03 2.75103166e-03 0.
      4.12654737e-03 2.75103166e-03 1.37551583e-03 4.12654737e-03
      5.50206332e-03 0. 4.12654737e-03 2.75103166e-03 2.75103166e-03
      5.50206332e-03 2.75103166e-03 6.87757926e-03 1.37551583e-03 0. 0.
      1.37551585e-02 1.37551583e-03 0. 2.75103166e-03 2.06327382e-02
      1.37551583e-03 1.37551585e-02 1.37551583e-03 0. 4.12654737e-03 0.
      1.10041266e-02 1.37551583e-03 5.50206332e-03 1.37551583e-03
      4.12654737e-03 1.37551583e-03 0. 2.75103166e-03 6.87757926e-03
      2.75103166e-03 0. 0. 4.12654737e-03 5.50206332e-03 9.62861069e-03
      1.37551583e-03 0. 1.37551583e-03 1.37551583e-03 6.87757926e-03 0.
      0.</_>
    <_>
      0. 2.35571265e-02 1.41342767e-02 7.06713833e-03 0. 0.
      9.42285080e-03 7.06713833e-03 2.35571270e-03 1.17785635e-03
      4.71142540e-03 7.06713833e-03 8.24499410e-03 4.71142540e-03
      8.24499410e-03 1.17785635e-03 0. 5.88928163e-03 2.35571270e-03
      1.76678449e-02 1.64899882e-02 5.88928163e-03 2.35571270e-03
      1.17785635e-03 7.06713833e-03 2.35571270e-03 7.06713833e-03
      7.06713833e-03 0. 0. 0. 0. 2.35571270e-03 1.76678449e-02
      4.71142540e-03 1.17785635e-03 1.06007075e-02 5.88928163e-03
      1.06007075e-02 1.17785635e-03 2.70906966e-02 1.17785635e-03
      1.29564200e-02 2.59128399e-02 2.35571270e-03 1.17785635e-03 0. 0.
      0. 3.53356916e-03 3.53356916e-03 0. 2.70906966e-02 0.
      1.53121324e-02 1.17785635e-03 5.88928163e-03 1.17785633e-02 0. 0.
      3.53356916e-03 1.17785633e-02 5.88928163e-03 1.17785635e-03 0.
      1.17785635e-03 5.88928163e-03 2.35571270e-03 3.53356916e-03
      2.35571270e-03 2.35571270e-03 0. 3.53356916e-03 1.06007075e-02
      1.17785635e-03 2.35571265e-02 8.24499410e-03 4.71142540e-03
      8.24499410e-03 0. 0. 2.35571270e-03 3.53356916e-03 0. 0.
      4.71142540e-03 2.35571270e-03 3.53356916e-03 1.06007075e-02 0.
      1.17785635e-03 0. 5.88928163e-03 5.88928163e-03 0. 0.
      1.17785635e-03 1.17785635e-03 3.53356916e-03 0. 0. 1.88457016e-02
      3.53356916e-03 2.35571270e-03 0. 1.17785635e-03 2.70906966e-02
      1.17785635e-03 0. 2.35571270e-03 3.53356916e-03 1.06007075e-02
      7.06713833e-03 1.06007075e-02 9.42285080e-03 0. 7.06713833e-03
      1.17785635e-03 2.35571270e-03 1.17785635e-03 8.24499410e-03
      1.17785635e-03 1.17785635e-03 1.17785635e-03 1.17785635e-03 0. 0.
      0. 5.88928163e-03 1.06007075e-02 1.17785635e-03 2.35571270e-03
      9.42285080e-03 5.88928163e-03 2.35571270e-03 1.17785633e-02
      3.53356916e-03 1.17785635e-03 1.06007075e-02 3.53356916e-03
      3.53356916e-03 3.53356916e-03 3.53356916e-03 4.71142540e-03
      7.06713833e-03 0. 0. 4.71142540e-03 2.35571270e-03 8.24499410e-03
      1.29564200e-02 7.06713833e-03 1.17785635e-03 3.53356916e-03 0.
      1.29564200e-02 4.71142540e-03 0. 4.71142540e-03 2.35571270e-03 0.
      4.71142540e-03 8.24499410e-03 9.42285080e-03 1.17785635e-03
      2.35571270e-03 1.17785635e-03 1.53121324e-02 5.88928163e-03 0.
      1.53121324e-02 2.59128399e-02 1.29564200e-02 1.76678449e-02
      3.53356916e-03 2.35571270e-03 5.88928163e-03 1.17785635e-03
      4.71142540e-03 7.06713833e-03 5.88928163e-03 4.71142540e-03
      5.88928163e-03 1.17785635e-03 0. 0. 9.42285080e-03 2.35571270e-03
      0. 0. 1.17785635e-03 2.35571270e-03 1.41342767e-02 7.06713833e-03
      0. 2.35571270e-03 0. 3.53356916e-03 3.53356916e-03 0.</_>
    <_>
      0. 8.86917952e-03 4.43458976e-03 1.44124171e-02 2.21729488e-03
      2.21729488e-03 7.76053220e-03 1.10864744e-03 4.43458976e-03
      2.21729488e-03 1.10864744e-03 9.97782685e-03 5.54323709e-03
      6.65188488e-03 6.65188488e-03 1.10864744e-03 2.21729488e-03
      5.54323709e-03 6.65188488e-03 3.10421288e-02 6.65188488e-03
      9.97782685e-03 0. 0. 7.76053220e-03 0. 2.21729488e-03
      6.65188488e-03 0. 0. 4.43458976e-03 0. 1.10864744e-03
      9.97782685e-03 9.97782685e-03 4.43458976e-03 8.86917952e-03
      5.54323709e-03 1.10864742e-02 1.10864744e-03 1.55210644e-02
      1.10864744e-03 1.21951215e-02 9.97782685e-03 0. 1.10864744e-03 0.
      1.10864744e-03 8.86917952e-03 1.10864744e-03 8.86917952e-03
      2.21729488e-03 3.21507752e-02 0. 4.10199538e-02 1.10864744e-03
      1.44124171e-02 3.32594244e-03 2.21729488e-03 0. 1.10864744e-03
      2.21729488e-03 0. 3.32594244e-03 0. 1.10864744e-03 3.32594244e-03
      8.86917952e-03 4.43458976e-03 3.32594244e-03 2.21729488e-03 0.
      3.32594244e-03 6.65188488e-03 5.54323709e-03 1.33037698e-02
      7.76053220e-03 2.21729488e-03 7.76053220e-03 2.21729488e-03
      1.10864744e-03 1.10864744e-03 4.43458976e-03 5.54323709e-03
      1.10864744e-03 2.21729488e-03 4.43458976e-03 4.43458976e-03
      1.21951215e-02 0. 3.32594244e-03 1.10864744e-03 3.32594244e-03
      4.43458976e-03 1.10864744e-03 2.21729488e-03 2.21729488e-03
      6.65188488e-03 5.54323709e-03 1.10864744e-03 5.54323709e-03
      1.88470073e-02 5.54323709e-03 4.43458976e-03 0. 0. 3.54767181e-02
      2.21729488e-03 1.10864744e-03 2.21729488e-03 2.21729488e-03
      1.33037698e-02 0. 1.10864742e-02 5.54323709e-03 0. 5.54323709e-03
      4.43458976e-03 1.10864744e-03 0. 0. 0. 1.10864744e-03
      5.54323709e-03 1.10864744e-03 1.10864744e-03 0. 2.21729488e-03
      4.43458976e-03 8.86917952e-03 1.55210644e-02 3.32594244e-03
      7.76053220e-03 6.65188488e-03 1.10864744e-03 6.65188488e-03
      3.32594244e-03 0. 5.54323709e-03 0. 0. 5.54323709e-03
      4.43458976e-03 1.10864744e-03 5.54323709e-03 0. 2.21729488e-03
      5.54323709e-03 1.10864744e-03 3.32594244e-03 5.54323709e-03 0.
      6.65188488e-03 0. 2.21729488e-03 1.88470073e-02 2.21729488e-03 0.
      0. 2.21729488e-03 1.10864744e-03 1.21951215e-02 4.43458976e-03
      3.32594244e-03 1.10864744e-03 0. 4.43458976e-03 7.76053220e-03 0.
      1.10864744e-03 9.97782685e-03 3.43680717e-02 1.99556537e-02
      1.33037698e-02 2.21729488e-03 0. 1.21951215e-02 2.21729488e-03
      7.76053220e-03 6.65188488e-03 1.10864744e-03 7.76053220e-03
      5.54323709e-03 0. 0. 7.76053220e-03 5.54323709e-03 1.10864744e-03
      0. 2.21729488e-03 8.86917952e-03 2.21729488e-03 1.55210644e-02
      6.65188488e-03 0. 5.54323709e-03 1.10864744e-03 3.32594244e-03
      5.54323709e-03 0.</_>
    <_>
      1.17233291e-03 1.52403275e-02 7.03399722e-03 4.68933163e-03 0.
      1.17233291e-03 1.28956623e-02 4.68933163e-03 1.17233291e-03
      4.68933163e-03 9.37866326e-03 4.68933163e-03 1.17233293e-02
      5.86166466e-03 5.86166466e-03 3.51699861e-03 1.17233291e-03
      4.68933163e-03 0. 2.34466586e-02 2.11019926e-02 7.03399722e-03
      3.51699861e-03 1.17233291e-03 3.51699861e-03 2.34466582e-03
      4.68933163e-03 9.37866326e-03 0. 1.17233291e-03 4.68933163e-03 0.
      0. 1.40679944e-02 3.51699861e-03 9.37866326e-03 2.22743247e-02
      9.37866326e-03 3.04806549e-02 1.17233291e-03 1.28956623e-02
      4.68933163e-03 1.17233293e-02 3.51699889e-02 2.34466582e-03 0. 0.
      2.34466582e-03 0. 3.51699861e-03 7.03399722e-03 1.17233291e-03
      2.11019926e-02 0. 1.28956623e-02 2.34466582e-03 5.86166466e-03
      7.03399722e-03 1.17233291e-03 0. 1.17233291e-03 3.51699861e-03 0.
      0. 3.51699861e-03 1.17233291e-03 4.68933163e-03 4.68933163e-03
      9.37866326e-03 1.17233291e-03 3.51699861e-03 0. 3.51699861e-03
      3.51699861e-03 2.34466582e-03 1.17233293e-02 4.68933163e-03
      3.75146531e-02 2.34466582e-03 0. 0. 0. 5.86166466e-03 0.
      1.17233291e-03 0. 0. 8.20633024e-03 1.28956623e-02 0.
      2.34466582e-03 0. 5.86166466e-03 7.03399722e-03 2.34466582e-03
      1.17233291e-03 1.17233291e-03 1.40679944e-02 9.37866326e-03
      2.34466582e-03 3.51699861e-03 1.87573265e-02 4.68933163e-03
      1.17233291e-03 2.34466582e-03 0. 2.81359889e-02 4.68933163e-03 0.
      1.17233291e-03 2.34466582e-03 9.37866326e-03 0. 0. 8.20633024e-03
      0. 8.20633024e-03 1.17233291e-03 0. 2.34466582e-03 3.51699861e-03
      9.37866326e-03 3.51699861e-03 2.34466582e-03 3.51699861e-03 0. 0.
      2.34466582e-03 5.86166466e-03 1.05509963e-02 4.68933163e-03
      1.17233291e-03 1.75849944e-02 7.03399722e-03 2.34466582e-03
      7.03399722e-03 1.17233291e-03 0. 1.17233291e-03 0. 7.03399722e-03
      4.68933163e-03 3.51699861e-03 3.51699861e-03 4.68933163e-03
      2.34466582e-03 2.34466582e-03 1.17233291e-03 0. 5.86166466e-03
      5.86166466e-03 0. 5.86166466e-03 1.17233291e-03 0. 1.40679944e-02
      4.68933163e-03 1.17233291e-03 2.34466582e-03 5.86166466e-03
      4.68933163e-03 9.37866326e-03 3.51699861e-03 8.20633024e-03 0. 0.
      0. 1.99296586e-02 2.34466582e-03 0. 7.03399722e-03 2.11019926e-02
      5.86166466e-03 1.52403275e-02 1.17233291e-03 1.17233291e-03
      2.34466582e-03 0. 7.03399722e-03 0. 9.37866326e-03 0.
      1.17233291e-03 1.17233291e-03 0. 1.17233291e-03 7.03399722e-03 0.
      0. 2.34466582e-03 5.86166466e-03 2.34466582e-03 3.51699861e-03
      4.68933163e-03 0. 9.37866326e-03 3.51699861e-03 3.51699861e-03
      4.68933163e-03 0.</_>
    <_>
      1.29870127e-03 1.03896102e-02 1.42857144e-02 1.03896102e-02 0.
      1.29870127e-03 7.79220741e-03 9.09090880e-03 2.59740255e-03
      1.03896102e-02 3.89610371e-03 5.19480510e-03 2.59740255e-03
      6.49350649e-03 9.09090880e-03 9.09090880e-03 2.59740255e-03
      3.89610371e-03 0. 9.09090880e-03 1.16883116e-02 1.16883116e-02
      7.79220741e-03 1.29870127e-03 5.19480510e-03 1.29870127e-03
      1.29870127e-03 6.49350649e-03 0. 0. 6.49350649e-03 0. 0.
      2.07792204e-02 1.29870127e-03 9.09090880e-03 2.98701301e-02
      7.79220741e-03 3.76623385e-02 3.89610371e-03 6.49350649e-03 0.
      9.09090880e-03 4.80519459e-02 5.19480510e-03 6.49350649e-03 0.
      1.29870127e-03 6.49350649e-03 2.59740255e-03 1.03896102e-02
      5.19480510e-03 1.16883116e-02 1.29870127e-03 1.55844148e-02 0.
      1.29870130e-02 7.79220741e-03 0. 2.59740255e-03 3.89610371e-03
      7.79220741e-03 1.29870127e-03 1.29870127e-03 1.29870127e-03 0.
      6.49350649e-03 2.59740255e-03 9.09090880e-03 0. 1.29870127e-03 0.
      7.79220741e-03 3.89610371e-03 1.29870127e-03 1.55844148e-02
      3.89610371e-03 3.63636352e-02 1.29870127e-03 1.29870127e-03 0.
      3.89610371e-03 1.29870127e-03 1.29870127e-03 0. 0. 1.29870127e-03
      7.79220741e-03 1.29870130e-02 0. 5.19480510e-03 1.29870127e-03
      3.89610371e-03 2.59740255e-03 1.29870127e-03 0. 1.29870127e-03
      1.81818176e-02 5.19480510e-03 1.29870127e-03 0. 1.42857144e-02
      6.49350649e-03 0. 1.29870127e-03 0. 1.94805190e-02 1.03896102e-02
      3.89610371e-03 3.89610371e-03 0. 3.89610371e-03 1.29870127e-03
      1.42857144e-02 5.19480510e-03 0. 1.16883116e-02 1.29870127e-03
      5.19480510e-03 0. 7.79220741e-03 1.29870127e-03 2.59740255e-03
      2.59740255e-03 1.29870127e-03 0. 0. 1.29870127e-03 1.29870127e-03
      1.42857144e-02 2.59740255e-03 2.59740255e-03 2.07792204e-02
      2.59740255e-03 9.09090880e-03 9.09090880e-03 6.49350649e-03
      2.59740255e-03 3.89610371e-03 0. 0. 1.29870127e-03 7.79220741e-03
      2.59740255e-03 5.19480510e-03 0. 1.29870127e-03 3.89610371e-03
      1.29870127e-03 5.19480510e-03 1.03896102e-02 2.59740255e-03
      1.29870127e-03 1.29870127e-03 1.29870127e-03 1.16883116e-02
      2.59740255e-03 0. 0. 2.59740255e-03 1.29870127e-03 5.19480510e-03
      2.59740255e-03 1.55844148e-02 0. 1.29870127e-03 0. 5.19480510e-03
      0. 0. 1.03896102e-02 1.03896102e-02 1.29870127e-03 6.49350649e-03
      0. 1.29870127e-03 1.29870127e-03 1.29870127e-03 5.19480510e-03
      5.19480510e-03 1.03896102e-02 0. 1.29870127e-03 0. 2.59740255e-03
      0. 7.79220741e-03 0. 1.29870127e-03 3.89610371e-03 2.59740255e-03
      3.89610371e-03 1.03896102e-02 3.89610371e-03 1.29870127e-03
      5.19480510e-03 0. 2.59740255e-03 0. 0.</_>
    <_>
      1.28040975e-03 2.04865560e-02 5.12163900e-03 8.96286778e-03
      1.28040975e-03 3.84122925e-03 1.02432780e-02 3.84122925e-03
      2.56081950e-03 5.12163900e-03 3.84122925e-03 0. 8.96286778e-03
      5.12163900e-03 1.53649170e-02 1.28040975e-03 0. 6.40204875e-03 0.
      2.56081950e-02 4.22535203e-02 0. 1.28040975e-03 3.84122925e-03
      6.40204875e-03 3.84122925e-03 6.40204875e-03 7.68245850e-03 0. 0.
      5.12163900e-03 0. 3.84122925e-03 7.68245850e-03 1.53649170e-02
      1.02432780e-02 1.79257356e-02 2.56081950e-03 1.66453272e-02
      1.28040975e-03 2.04865560e-02 0. 1.40845068e-02 3.45710628e-02
      6.40204875e-03 0. 0. 0. 3.84122925e-03 1.28040975e-03
      1.53649170e-02 1.28040975e-03 1.40845068e-02 0. 2.43277848e-02
      1.28040975e-03 7.68245850e-03 8.96286778e-03 3.84122925e-03 0.
      2.56081950e-03 1.28040975e-03 1.28040975e-03 0. 0. 3.84122925e-03
      3.84122925e-03 2.56081950e-03 0. 1.02432780e-02 1.28040975e-03 0.
      1.28040975e-03 3.84122925e-03 1.28040975e-03 1.02432780e-02
      1.28040975e-03 2.04865560e-02 2.56081950e-03 1.28040975e-03 0.
      1.28040975e-03 5.12163900e-03 2.56081950e-03 0. 1.28040975e-03
      2.56081950e-03 5.12163900e-03 1.40845068e-02 1.28040975e-03
      2.56081950e-03 2.56081950e-03 8.96286778e-03 6.40204875e-03
      1.02432780e-02 0. 0. 1.28040975e-02 2.56081950e-03 1.28040975e-03
      2.56081950e-03 1.02432780e-02 3.84122925e-03 5.12163900e-03 0.
      1.28040975e-03 1.15236882e-02 2.56081950e-03 1.28040975e-03
      1.28040975e-03 1.28040975e-03 6.40204875e-03 5.12163900e-03
      2.56081950e-03 7.68245850e-03 0. 2.56081950e-03 1.28040975e-03 0.
      3.84122925e-03 2.56081950e-03 8.96286778e-03 1.28040975e-03
      1.28040975e-03 3.84122925e-03 0. 1.28040975e-03 0. 3.84122925e-03
      1.53649170e-02 1.28040975e-03 0. 2.04865560e-02 8.96286778e-03
      3.84122925e-03 1.15236882e-02 3.84122925e-03 0. 2.56081950e-03
      1.28040975e-03 1.28040975e-03 3.84122925e-03 1.28040975e-02
      1.28040975e-03 1.02432780e-02 1.28040975e-03 0. 0. 1.28040975e-03
      2.56081950e-03 5.12163900e-03 1.28040975e-03 0. 1.28040975e-03
      1.28040975e-03 5.12163900e-03 3.84122925e-03 2.56081950e-03
      1.28040975e-03 2.56081950e-03 2.56081950e-03 2.56081950e-03
      5.12163900e-03 0. 0. 1.28040975e-03 0. 1.66453272e-02 0. 0.
      1.15236882e-02 1.40845068e-02 8.96286778e-03 2.30473764e-02
      1.28040975e-03 0. 2.56081950e-03 0. 6.40204875e-03 5.12163900e-03
      1.79257356e-02 0. 2.56081950e-03 0. 1.28040975e-03 3.84122925e-03
      6.40204875e-03 0. 0. 1.28040975e-03 7.68245850e-03 5.12163900e-03
      6.40204875e-03 1.28040975e-02 0. 2.56081950e-03 5.12163900e-03
      7.68245850e-03 7.68245850e-03 0.</_>
    <_>
      0. 1.53688518e-02 4.09836043e-03 1.12704914e-02 0. 1.02459011e-03
      1.02459006e-02 6.14754064e-03 6.14754064e-03 2.04918021e-03
      3.07377032e-03 3.07377032e-03 3.07377032e-03 5.12295030e-03
      8.19672085e-03 2.04918021e-03 0. 9.22131073e-03 1.02459011e-03
      5.12295030e-03 7.17213098e-03 7.17213098e-03 3.07377032e-03
      2.04918021e-03 8.19672085e-03 3.07377032e-03 5.12295030e-03
      8.19672085e-03 0. 1.02459011e-03 7.17213098e-03 1.02459011e-03
      1.02459011e-03 1.02459006e-02 1.02459011e-03 3.07377032e-03
      2.45901626e-02 1.33196712e-02 2.66393423e-02 1.02459011e-03
      1.84426215e-02 3.07377032e-03 1.63934417e-02 1.22950813e-02
      1.02459011e-03 0. 1.02459011e-03 6.14754064e-03 1.02459011e-03
      3.07377032e-03 1.12704914e-02 4.09836043e-03 1.84426215e-02 0.
      2.56147534e-02 1.02459011e-03 1.12704914e-02 1.02459006e-02
      1.02459011e-03 0. 0. 4.09836043e-03 2.04918021e-03 3.07377032e-03
      1.02459011e-03 1.02459011e-03 1.02459011e-03 2.04918021e-03
      3.07377032e-03 0. 1.02459011e-03 0. 2.04918021e-03 1.02459006e-02
      4.09836043e-03 6.14754064e-03 8.19672085e-03 1.43442620e-02
      2.04918021e-03 1.02459011e-03 0. 2.04918021e-03 2.04918021e-03
      1.02459011e-03 2.04918021e-03 4.09836043e-03 0. 4.09836043e-03
      4.09836043e-03 0. 2.04918021e-03 2.04918021e-03 2.04918021e-03
      9.22131073e-03 0. 2.04918021e-03 0. 1.02459006e-02 7.17213098e-03
      0. 1.02459011e-03 1.02459006e-02 2.04918021e-03 2.04918021e-03 0.
      0. 2.76639331e-02 2.04918021e-03 2.04918021e-03 1.02459011e-03
      3.07377032e-03 9.22131073e-03 7.17213098e-03 5.12295030e-03
      9.22131073e-03 0. 1.02459006e-02 5.12295030e-03 3.07377032e-03
      4.09836043e-03 9.22131073e-03 7.17213098e-03 3.07377032e-03
      3.07377032e-03 3.07377032e-03 0. 0. 4.09836043e-03 1.02459011e-03
      7.17213098e-03 8.19672085e-03 0. 7.17213098e-03 5.12295030e-03
      2.04918021e-03 1.53688518e-02 5.12295030e-03 2.04918021e-03
      6.14754064e-03 0. 1.02459011e-03 5.12295030e-03 9.22131073e-03
      2.04918021e-03 7.17213098e-03 2.04918021e-03 0. 3.07377032e-03 0.
      6.14754064e-03 5.12295030e-03 2.04918021e-03 4.09836043e-03
      2.04918021e-03 0. 7.17213098e-03 3.07377032e-03 0. 4.09836043e-03
      4.09836043e-03 3.07377032e-03 1.84426215e-02 5.12295030e-03
      1.63934417e-02 0. 1.02459011e-03 0. 6.14754064e-03 1.02459011e-03
      0. 1.12704914e-02 5.84016368e-02 2.04918021e-03 1.22950813e-02
      2.04918021e-03 1.02459011e-03 2.15163920e-02 1.02459011e-03
      4.09836043e-03 9.22131073e-03 4.09836043e-03 0. 5.12295030e-03 0.
      0. 1.02459011e-03 3.07377032e-03 2.04918021e-03 0. 4.09836043e-03
      3.07377032e-03 6.14754064e-03 1.33196712e-02 5.12295030e-03
      1.02459011e-03 6.14754064e-03 2.04918021e-03 4.09836043e-03
      7.17213098e-03 0.</_>
    <_>
      2.88461545e-03 1.53846154e-02 1.05769234e-02 4.80769249e-03 0. 0.
      9.61538497e-03 4.80769249e-03 1.92307692e-03 0. 1.34615386e-02
      2.88461545e-03 7.69230770e-03 5.76923089e-03 3.84615385e-03
      1.25000002e-02 9.61538462e-04 7.69230770e-03 1.92307692e-03
      1.73076931e-02 2.11538468e-02 7.69230770e-03 2.88461545e-03 0.
      3.84615385e-03 9.61538462e-04 3.84615385e-03 7.69230770e-03 0. 0.
      4.80769249e-03 9.61538462e-04 9.61538462e-04 2.88461545e-03
      6.73076930e-03 9.61538497e-03 3.07692308e-02 2.88461545e-03
      2.21153852e-02 1.92307692e-03 2.21153852e-02 1.92307692e-03
      6.73076930e-03 3.84615399e-02 9.61538462e-04 1.92307692e-03 0. 0.
      0. 9.61538462e-04 3.84615385e-03 1.92307692e-03 3.94230783e-02 0.
      1.73076931e-02 9.61538462e-04 9.61538462e-04 3.84615385e-03 0. 0.
      0. 3.84615385e-03 1.92307692e-03 0. 0. 0. 6.73076930e-03
      3.84615385e-03 5.76923089e-03 5.76923089e-03 0. 0. 9.61538462e-04
      6.73076930e-03 0. 1.63461547e-02 4.80769249e-03 2.50000004e-02
      5.76923089e-03 0. 9.61538462e-04 1.92307692e-03 0. 9.61538462e-04
      0. 9.61538462e-04 9.61538462e-04 0. 1.25000002e-02 0.
      9.61538462e-04 1.92307692e-03 1.25000002e-02 1.92307692e-03
      9.61538462e-04 0. 0. 4.90384623e-02 1.25000002e-02 2.88461545e-03
      1.92307692e-03 2.01923084e-02 4.80769249e-03 3.84615385e-03
      9.61538462e-04 9.61538462e-04 2.11538468e-02 4.80769249e-03
      2.88461545e-03 0. 0. 7.69230770e-03 2.88461545e-03 4.80769249e-03
      1.73076931e-02 9.61538462e-04 8.65384657e-03 9.61538462e-04
      1.92307692e-03 0. 9.61538462e-04 9.61538462e-04 5.76923089e-03 0.
      3.84615385e-03 0. 1.92307692e-03 0. 7.69230770e-03 7.69230770e-03
      1.92307692e-03 2.88461545e-03 2.40384620e-02 5.76923089e-03 0.
      3.84615385e-03 9.61538462e-04 1.92307692e-03 2.88461545e-03 0.
      1.92307692e-03 2.88461545e-03 2.88461545e-03 9.61538462e-04
      4.80769249e-03 1.92307692e-03 0. 2.88461545e-03 9.61538462e-04
      2.88461545e-03 4.80769249e-03 0. 3.84615385e-03 2.88461545e-03
      9.61538462e-04 5.76923089e-03 5.76923089e-03 0. 0. 5.76923089e-03
      9.61538462e-04 6.73076930e-03 5.76923089e-03 9.61538497e-03 0.
      9.61538462e-04 2.88461545e-03 1.92307699e-02 1.92307692e-03 0.
      8.65384657e-03 9.61538497e-03 2.88461545e-03 7.69230770e-03
      1.92307692e-03 0. 2.88461545e-03 2.88461545e-03 8.65384657e-03
      6.73076930e-03 8.65384657e-03 1.92307692e-03 9.61538497e-03
      9.61538462e-04 9.61538462e-04 9.61538462e-04 1.05769234e-02 0.
      9.61538462e-04 1.92307692e-03 4.80769249e-03 5.76923089e-03
      9.61538497e-03 7.69230770e-03 0. 8.65384657e-03 1.92307692e-03
      3.84615385e-03 1.92307692e-03 1.92307692e-03</_>
    <_>
      0. 1.54639184e-02 1.44329900e-02 7.21649500e-03 0. 0.
      1.13402065e-02 4.12371149e-03 8.24742299e-03 1.03092787e-03
      5.15463948e-03 9.27835051e-03 1.13402065e-02 7.21649500e-03
      6.18556701e-03 1.03092787e-03 1.03092787e-03 8.24742299e-03
      4.12371149e-03 1.13402065e-02 7.21649500e-03 7.21649500e-03 0.
      2.06185575e-03 5.15463948e-03 0. 8.24742299e-03 7.21649500e-03 0.
      0. 6.18556701e-03 2.06185575e-03 0. 1.34020625e-02 4.12371149e-03
      4.12371149e-03 1.13402065e-02 6.18556701e-03 1.85567010e-02
      2.06185575e-03 1.85567010e-02 3.09278350e-03 2.26804130e-02
      1.13402065e-02 0. 1.03092787e-03 0. 3.09278350e-03 1.03092787e-03
      7.21649500e-03 6.18556701e-03 2.06185575e-03 2.37113405e-02 0.
      4.84536104e-02 0. 1.13402065e-02 1.03092790e-02 0. 0.
      2.06185575e-03 2.06185575e-03 1.03092787e-03 0. 0. 5.15463948e-03
      5.15463948e-03 2.06185575e-03 6.18556701e-03 3.09278350e-03
      1.03092787e-03 2.06185575e-03 4.12371149e-03 8.24742299e-03 0.
      9.27835051e-03 4.12371149e-03 9.27835051e-03 7.21649500e-03
      1.03092787e-03 0. 1.03092787e-03 0. 3.09278350e-03 0.
      1.03092787e-03 2.06185575e-03 2.06185575e-03 1.95876304e-02 0.
      2.06185575e-03 2.06185575e-03 7.21649500e-03 5.15463948e-03 0.
      3.09278350e-03 0. 1.03092787e-03 9.27835051e-03 1.03092787e-03
      2.06185575e-03 9.27835051e-03 6.18556701e-03 4.12371149e-03
      1.03092787e-03 0. 3.71134020e-02 3.09278350e-03 2.06185575e-03
      2.06185575e-03 4.12371149e-03 3.09278350e-03 0. 9.27835051e-03
      7.21649500e-03 1.03092787e-03 9.27835051e-03 5.15463948e-03
      3.09278350e-03 0. 9.27835051e-03 7.21649500e-03 1.03092787e-03
      5.15463948e-03 0. 0. 0. 2.06185575e-03 3.09278350e-03
      6.18556701e-03 9.27835051e-03 0. 7.21649500e-03 5.15463948e-03
      2.06185575e-03 5.15463948e-03 2.06185575e-03 0. 7.21649500e-03 0.
      3.09278350e-03 1.03092787e-03 6.18556701e-03 3.09278350e-03
      1.13402065e-02 3.09278350e-03 0. 2.06185575e-03 0. 6.18556701e-03
      7.21649500e-03 1.03092787e-03 5.15463948e-03 0. 1.03092787e-03
      4.12371149e-03 5.15463948e-03 1.03092787e-03 5.15463948e-03 0.
      5.15463948e-03 1.54639184e-02 2.06185575e-03 1.44329900e-02 0.
      2.06185575e-03 4.12371149e-03 2.68041249e-02 2.06185575e-03
      1.03092787e-03 7.21649500e-03 4.02061865e-02 5.15463948e-03
      1.44329900e-02 1.03092787e-03 0. 1.03092790e-02 0. 3.09278350e-03
      9.27835051e-03 1.03092787e-03 0. 7.21649500e-03 2.06185575e-03 0.
      2.06185575e-03 7.21649500e-03 0. 0. 3.09278350e-03 9.27835051e-03
      2.06185575e-03 1.03092790e-02 3.09278350e-03 0. 1.03092787e-03 0.
      3.09278350e-03 2.06185575e-03 0.</_>
    <_>
      0. 2.06378996e-02 2.25140713e-02 3.75234522e-03 1.87617261e-03 0.
      1.68855526e-02 1.31332083e-02 0. 1.87617261e-03 7.12945610e-02 0.
      7.50469044e-03 1.87617261e-03 1.31332083e-02 5.62851783e-03 0.
      3.75234522e-03 0. 1.05065666e-01 1.12570357e-02 7.50469044e-03
      1.87617261e-03 0. 3.75234522e-03 1.87617261e-03 1.87617261e-03
      7.50469044e-03 0. 0. 7.50469044e-03 0. 0. 1.87617261e-02
      1.87617261e-03 7.50469044e-03 1.87617261e-02 7.50469044e-03
      1.68855526e-02 5.62851783e-03 1.87617261e-02 3.75234522e-03
      7.50469044e-03 1.68855526e-02 0. 0. 0. 0. 0. 0. 7.50469044e-03
      1.12570357e-02 9.38086305e-03 7.50469044e-03 1.87617261e-03
      7.50469044e-03 1.31332083e-02 1.12570357e-02 0. 0. 1.87617261e-03
      3.75234522e-03 0. 0. 1.87617261e-03 0. 1.87617261e-03
      1.87617261e-03 0. 1.87617261e-03 0. 0. 1.87617261e-03
      3.75234522e-03 1.87617261e-03 1.50093809e-02 7.50469044e-03
      5.62851783e-03 0. 0. 0. 0. 0. 1.87617261e-03 0. 1.87617261e-03
      1.87617261e-03 1.87617261e-03 2.06378996e-02 0. 0. 0.
      7.50469044e-03 1.87617261e-03 7.50469044e-03 0. 5.62851783e-03
      1.87617261e-03 5.62851783e-03 3.75234522e-03 5.62851783e-03
      7.50469044e-03 3.75234522e-02 3.75234522e-03 0. 5.62851783e-03 0.
      3.75234522e-03 1.87617261e-03 0. 0. 1.87617261e-03 3.75234522e-03
      3.75234522e-03 2.06378996e-02 1.87617261e-03 3.75234522e-03 0.
      7.50469044e-03 0. 0. 3.75234522e-03 1.87617261e-03 0.
      1.87617261e-03 0. 1.87617261e-03 0. 9.38086305e-03 1.12570357e-02
      0. 0. 3.75234522e-03 1.87617261e-03 0. 5.62851783e-03
      1.87617261e-03 0. 1.87617261e-03 0. 3.75234522e-03 7.50469044e-03
      5.62851783e-03 1.87617261e-03 2.43902430e-02 0. 0. 5.62851783e-03
      0. 1.87617261e-03 1.87617261e-03 0. 0. 0. 0. 1.87617261e-03 0. 0.
      0. 1.87617261e-03 1.87617261e-03 3.75234522e-03 7.50469044e-03 0.
      1.87617261e-03 0. 0. 3.00187618e-02 0. 0. 5.62851783e-03
      7.50469044e-03 0. 9.38086305e-03 0. 3.75234522e-03 1.87617261e-03
      0. 5.62851783e-03 3.75234522e-03 1.31332083e-02 0. 9.38086305e-03
      0. 0. 0. 7.50469044e-03 0. 0. 0. 3.75234522e-03 1.87617261e-03
      1.31332083e-02 7.50469044e-03 0. 9.38086305e-03 0. 3.75234522e-03
      1.87617261e-03 0.</_>
    <_>
      1.65562914e-03 2.31788084e-02 2.31788084e-02 1.15894042e-02 0. 0.
      1.32450331e-02 3.31125828e-03 0. 0. 7.78145716e-02 0.
      6.62251655e-03 6.62251655e-03 8.27814545e-03 1.65562914e-03
      3.31125828e-03 4.96688765e-03 0. 8.44370872e-02 1.65562914e-03
      9.93377529e-03 8.27814545e-03 1.65562914e-03 6.62251655e-03 0.
      3.31125828e-03 1.32450331e-02 0. 0. 1.65562914e-03 1.65562914e-03
      0. 1.65562914e-03 6.62251655e-03 0. 1.49006620e-02 1.65562914e-03
      1.15894042e-02 3.31125828e-03 2.81456951e-02 0. 1.15894042e-02
      1.32450331e-02 0. 3.31125828e-03 0. 0. 0. 0. 1.65562914e-03
      9.93377529e-03 6.62251655e-03 6.62251655e-03 4.96688765e-03
      1.65562914e-03 0. 9.93377529e-03 1.65562914e-03 1.65562914e-03
      4.96688765e-03 3.31125828e-03 3.31125828e-03 1.65562914e-03 0.
      3.31125828e-03 1.15894042e-02 4.96688765e-03 3.31125828e-03
      9.93377529e-03 1.65562914e-03 0. 1.65562914e-03 3.31125828e-03 0.
      1.32450331e-02 3.31125828e-03 0. 1.65562914e-03 0. 0. 0.
      9.93377529e-03 4.96688765e-03 0. 3.31125828e-03 0. 0.
      2.31788084e-02 1.65562914e-03 0. 1.65562914e-03 1.15894042e-02 0.
      0. 0. 3.31125828e-03 3.31125828e-03 1.65562914e-03 1.65562914e-03
      0. 4.96688765e-03 4.96688765e-03 3.31125828e-03 3.31125828e-03 0.
      3.31125828e-03 3.31125828e-03 1.65562914e-03 1.65562914e-03
      3.31125828e-03 1.15894042e-02 2.15231795e-02 1.65562914e-03
      1.32450331e-02 0. 6.62251655e-03 8.27814545e-03 3.31125828e-03 0.
      4.96688765e-03 1.49006620e-02 0. 0. 1.65562914e-03 0.
      1.65562914e-03 0. 1.49006620e-02 1.15894042e-02 3.31125828e-03 0.
      6.62251655e-03 0. 1.65562914e-03 6.62251655e-03 0. 0. 0.
      1.65562914e-03 1.65562909e-02 0. 3.31125828e-03 0. 3.47682126e-02
      0. 0. 0. 0. 4.96688765e-03 0. 4.96688765e-03 0. 0. 0.
      3.31125828e-03 0. 0. 1.65562914e-03 0. 4.96688765e-03
      4.96688765e-03 3.31125828e-03 0. 0. 0. 3.31125828e-03
      4.63576168e-02 0. 0. 0. 6.62251655e-03 0. 4.96688765e-03
      8.27814545e-03 0. 3.31125828e-03 1.65562914e-03 4.96688765e-03
      4.96688765e-03 1.15894042e-02 1.65562914e-03 3.31125828e-03
      1.65562914e-03 0. 0. 1.49006620e-02 0. 0. 3.31125828e-03
      1.65562914e-03 1.65562914e-03 4.96688765e-03 1.65562914e-03 0.
      1.32450331e-02 1.65562914e-03 8.27814545e-03 1.65562914e-03 0.</_>
    <_>
      9.13241995e-04 1.73515975e-02 8.21917783e-03 8.21917783e-03 0.
      2.73972610e-03 6.39269408e-03 4.56620986e-03 5.47945220e-03
      1.82648399e-03 2.19178088e-02 9.13241971e-03 1.82648399e-03
      1.36986300e-02 6.39269408e-03 9.13241995e-04 1.82648399e-03
      6.39269408e-03 9.13241995e-04 1.91780813e-02 5.47945220e-03
      6.39269408e-03 2.73972610e-03 0. 1.00456616e-02 9.13241995e-04
      9.13241995e-04 8.21917783e-03 2.73972610e-03 0. 3.65296798e-03
      2.73972610e-03 9.13241995e-04 4.56620986e-03 3.65296798e-03
      5.47945220e-03 1.91780813e-02 1.18721463e-02 2.19178088e-02
      1.82648399e-03 7.30593596e-03 0. 1.73515975e-02 1.00456616e-02 0.
      1.82648399e-03 0. 1.82648399e-03 9.13241995e-04 6.39269408e-03
      6.39269408e-03 4.56620986e-03 2.73972601e-02 3.65296798e-03
      4.01826464e-02 9.13241995e-04 2.10045651e-02 1.18721463e-02
      9.13241995e-04 9.13241995e-04 0. 3.65296798e-03 0. 0. 0.
      1.82648399e-03 2.73972610e-03 0. 9.13241995e-04 9.13241995e-04
      2.73972610e-03 0. 1.82648399e-03 3.65296798e-03 1.82648399e-03
      1.00456616e-02 1.82648399e-03 1.09589044e-02 1.82648399e-03
      2.73972610e-03 0. 1.82648399e-03 9.13241995e-04 1.82648399e-03 0.
      9.13241995e-04 1.82648399e-03 7.30593596e-03 2.00913232e-02
      9.13241995e-04 9.13241995e-04 0. 4.56620986e-03 1.09589044e-02
      9.13241995e-04 9.13241995e-04 0. 1.82648399e-03 1.27853882e-02
      9.13241995e-04 3.65296798e-03 2.00913232e-02 5.47945220e-03
      9.13241995e-04 0. 0. 3.92694063e-02 0. 4.56620986e-03
      5.47945220e-03 9.13241995e-04 9.13241995e-04 4.56620986e-03
      1.00456616e-02 6.39269408e-03 0. 8.21917783e-03 2.73972610e-03
      2.73972610e-03 0. 4.56620986e-03 5.47945220e-03 9.13241995e-04
      4.56620986e-03 9.13241995e-04 9.13241995e-04 9.13241995e-04
      9.13241995e-04 1.82648399e-03 1.46118719e-02 5.47945220e-03
      2.73972610e-03 1.55251138e-02 9.13241995e-04 1.82648399e-03
      1.09589044e-02 1.82648399e-03 1.82648399e-03 4.56620986e-03 0.
      4.56620986e-03 3.65296798e-03 5.47945220e-03 9.13241995e-04
      1.73515975e-02 0. 9.13241995e-04 6.39269408e-03 0. 3.65296798e-03
      1.82648399e-03 3.65296798e-03 5.47945220e-03 9.13241995e-04
      1.82648399e-03 6.39269408e-03 1.82648399e-03 9.13241995e-04
      9.13241995e-04 0. 4.56620986e-03 2.28310507e-02 2.73972610e-03
      1.09589044e-02 9.13241995e-04 0. 1.82648399e-03 2.00913232e-02
      2.73972610e-03 0. 7.30593596e-03 4.56621014e-02 3.65296798e-03
      7.30593596e-03 9.13241995e-04 0. 4.56620986e-03 1.82648399e-03
      1.82648399e-03 5.47945220e-03 4.56620986e-03 0. 3.65296798e-03 0.
      0. 6.39269408e-03 8.21917783e-03 9.13241995e-04 0. 1.82648399e-03
      7.30593596e-03 3.65296798e-03 9.13241971e-03 3.65296798e-03 0.
      9.13241995e-04 3.65296798e-03 9.13241995e-04 4.56620986e-03 0.</_>
    <_>
      0. 3.19327749e-02 5.04201697e-03 1.68067229e-03 0. 0.
      1.34453783e-02 3.36134457e-03 0. 8.40336177e-03 8.40336159e-02 0.
      3.36134457e-03 1.00840339e-02 6.72268914e-03 1.68067229e-03
      1.68067229e-03 5.04201697e-03 0. 1.31092444e-01 4.70588244e-02
      8.40336177e-03 3.36134457e-03 0. 0. 1.68067229e-03 1.68067229e-03
      8.40336177e-03 0. 0. 0. 3.36134457e-03 8.40336177e-03
      8.40336177e-03 6.72268914e-03 1.68067229e-03 5.04201697e-03
      6.72268914e-03 8.40336177e-03 0. 8.40336177e-03 0. 1.17647061e-02
      2.68907566e-02 1.68067229e-03 1.68067229e-03 0. 0. 0.
      3.36134457e-03 5.04201697e-03 5.04201697e-03 6.72268914e-03 0.
      3.36134457e-03 5.04201697e-03 8.40336177e-03 1.17647061e-02 0.
      8.40336177e-03 3.36134457e-03 6.72268914e-03 3.36134457e-03
      1.68067229e-03 0. 0. 1.68067229e-03 1.68067229e-03 0.
      1.68067229e-03 0. 1.68067229e-03 5.04201697e-03 5.04201697e-03 0.
      2.18487401e-02 3.36134457e-03 3.36134457e-03 1.68067229e-03 0. 0.
      0. 6.72268914e-03 3.36134457e-03 0. 5.04201697e-03 0.
      1.68067229e-03 6.72268914e-03 0. 0. 1.68067229e-03 3.36134457e-03
      5.04201697e-03 0. 0. 1.68067229e-03 6.72268914e-03 0.
      1.68067229e-03 0. 1.68067229e-03 2.52100844e-02 3.36134457e-03 0.
      0. 0. 8.40336177e-03 1.68067229e-03 0. 1.68067229e-03
      3.36134457e-03 0. 3.36134457e-03 1.00840339e-02 0. 3.36134457e-03
      0. 1.00840339e-02 1.68067229e-03 6.72268914e-03 5.04201697e-03
      1.68067229e-03 0. 0. 0. 0. 1.68067229e-03 1.17647061e-02
      1.51260504e-02 0. 1.68067229e-03 1.00840339e-02 3.36134457e-03 0.
      6.72268914e-03 0. 1.68067229e-03 0. 0. 3.36134457e-03
      6.72268914e-03 3.36134457e-03 1.68067229e-03 1.00840339e-02 0. 0.
      8.40336177e-03 0. 5.04201697e-03 1.68067229e-03 0. 1.68067229e-03
      5.04201697e-03 0. 8.40336177e-03 3.36134457e-03 0. 0.
      3.36134457e-03 0. 0. 1.00840339e-02 0. 1.68067229e-03 0. 0.
      2.85714287e-02 0. 3.36134457e-03 1.68067229e-03 6.72268914e-03
      1.68067229e-03 1.34453783e-02 3.36134457e-03 0. 3.36134457e-03 0.
      8.40336177e-03 0. 1.00840339e-02 0. 5.04201697e-03 1.68067229e-03
      0. 0. 6.72268914e-03 0. 0. 0. 6.72268914e-03 1.34453783e-02
      1.34453783e-02 1.68067229e-03 0. 6.72268914e-03 3.36134457e-03
      6.72268914e-03 0. 0.</_>
    <_>
      0. 4.50751223e-02 1.50250411e-02 5.00834733e-03 0. 0.
      1.83639396e-02 1.66944903e-03 0. 1.66944903e-03 7.01168627e-02
      3.33889807e-03 5.00834733e-03 0. 8.34724493e-03 0. 0.
      1.66944903e-03 0. 7.84641057e-02 2.83806343e-02 3.33889807e-03
      3.33889807e-03 0. 5.00834733e-03 0. 0. 6.67779613e-03 0. 0.
      3.33889807e-03 1.66944903e-03 1.66944903e-03 1.33555923e-02
      1.66944903e-03 0. 6.67779613e-03 0. 1.66944899e-02 0.
      1.83639396e-02 0. 1.00166947e-02 1.16861435e-02 1.66944903e-03
      1.66944903e-03 0. 0. 0. 3.33889807e-03 1.50250411e-02
      8.34724493e-03 1.50250411e-02 1.66944903e-03 8.34724493e-03
      1.66944903e-03 8.34724493e-03 1.33555923e-02 0. 5.00834733e-03 0.
      1.16861435e-02 3.33889807e-03 1.66944903e-03 1.66944903e-03 0.
      1.00166947e-02 5.00834733e-03 0. 3.33889807e-03 1.66944903e-03 0.
      1.66944903e-03 1.66944903e-03 0. 1.00166947e-02 1.66944903e-03
      1.66944903e-03 3.33889807e-03 1.66944903e-03 0. 0. 5.00834733e-03
      0. 3.33889807e-03 8.34724493e-03 0. 0. 2.00333893e-02 0. 0.
      1.66944903e-03 3.33889807e-03 1.66944903e-03 0. 0. 6.67779613e-03
      6.67779613e-03 1.66944903e-03 1.66944903e-03 3.33889807e-03 0.
      5.00834733e-03 3.33889807e-03 0. 0. 6.67779613e-03 8.34724493e-03
      1.66944903e-03 1.66944903e-03 0. 1.16861435e-02 0. 3.33889807e-03
      2.00333893e-02 0. 1.66944903e-03 5.00834733e-03 0. 0.
      1.66944903e-03 1.16861435e-02 1.66944903e-03 0. 5.00834733e-03 0.
      0. 0. 2.00333893e-02 2.17028372e-02 0. 5.00834733e-03
      4.34056744e-02 3.33889807e-03 1.66944903e-03 6.67779613e-03
      6.67779613e-03 0. 1.66944903e-03 1.66944903e-03 3.33889807e-03
      1.66944903e-03 6.67779613e-03 1.66944903e-03 1.83639396e-02
      5.00834733e-03 0. 3.33889807e-03 0. 8.34724493e-03 0.
      3.33889807e-03 0. 6.67779613e-03 0. 8.34724493e-03 1.66944903e-03
      1.66944903e-03 0. 1.66944903e-03 1.66944903e-03 0. 6.67779613e-03
      1.66944903e-03 0. 3.33889807e-03 0. 2.33722869e-02 1.66944903e-03
      0. 5.00834733e-03 1.66944903e-03 0. 5.00834733e-03 1.66944903e-03
      0. 1.16861435e-02 1.66944903e-03 1.66944903e-03 0. 1.66944899e-02
      0. 1.00166947e-02 0. 0. 0. 8.34724493e-03 0. 0. 1.66944903e-03
      3.33889807e-03 1.66944903e-03 6.67779613e-03 1.66944903e-03 0.
      5.00834733e-03 1.66944903e-03 1.00166947e-02 1.66944903e-03 0.</_>
    <_>
      1.54320989e-03 2.77777780e-02 2.31481493e-02 4.62962966e-03 0. 0.
      0. 1.38888890e-02 1.54320989e-03 3.08641978e-03 4.62962985e-02
      1.54320989e-03 4.62962966e-03 3.08641978e-03 4.62962966e-03
      1.54320989e-03 3.08641978e-03 4.62962966e-03 0. 5.40123470e-02
      4.16666679e-02 4.62962966e-03 1.54320989e-03 0. 3.08641978e-03
      1.54320989e-03 0. 6.17283955e-03 0. 0. 1.54320989e-03
      3.08641978e-03 1.54320989e-03 1.23456791e-02 1.08024692e-02 0.
      1.54320989e-02 3.08641978e-03 2.31481493e-02 3.08641978e-03
      1.38888890e-02 0. 7.71604944e-03 2.77777780e-02 0. 6.17283955e-03
      0. 0. 3.08641978e-03 3.08641978e-03 6.17283955e-03 3.08641978e-03
      1.38888890e-02 6.17283955e-03 1.54320989e-02 1.54320989e-03
      7.71604944e-03 1.08024692e-02 1.54320989e-03 0. 3.08641978e-03
      6.17283955e-03 4.62962966e-03 0. 0. 3.08641978e-03 4.62962966e-03
      1.54320989e-03 0. 1.54320989e-03 3.08641978e-03 0. 0.
      1.54320989e-03 3.08641978e-03 2.31481493e-02 1.54320989e-03
      1.85185187e-02 1.54320989e-03 0. 0. 3.08641978e-03 1.08024692e-02
      4.62962966e-03 0. 3.08641978e-03 0. 1.54320989e-03 2.93209888e-02
      0. 3.08641978e-03 1.54320989e-03 6.17283955e-03 0. 0. 0.
      1.54320989e-03 1.85185187e-02 6.17283955e-03 4.62962966e-03 0.
      7.71604944e-03 7.71604944e-03 3.08641978e-03 1.54320989e-03 0.
      4.62962966e-03 9.25925933e-03 0. 1.54320989e-03 0. 6.17283955e-03
      0. 6.17283955e-03 7.71604944e-03 0. 3.08641978e-03 4.62962966e-03
      4.62962966e-03 0. 7.71604944e-03 7.71604944e-03 1.54320989e-03
      4.62962966e-03 3.08641978e-03 0. 1.54320989e-03 0. 6.17283955e-03
      1.69753097e-02 1.54320989e-03 4.62962966e-03 6.17283955e-03
      4.62962966e-03 0. 1.08024692e-02 3.08641978e-03 1.54320989e-03 0.
      0. 1.54320989e-03 3.08641978e-03 4.62962966e-03 4.62962966e-03
      2.00617276e-02 0. 0. 4.62962966e-03 0. 6.17283955e-03
      6.17283955e-03 0. 3.08641978e-03 3.08641978e-03 1.54320989e-03
      7.71604944e-03 1.54320989e-03 0. 1.54320989e-03 6.17283955e-03 0.
      1.54320989e-03 1.54320989e-03 0. 0. 0. 1.54320989e-03
      3.70370373e-02 0. 0. 9.25925933e-03 4.62962966e-03 0.
      3.08641978e-03 3.08641978e-03 0. 4.62962966e-03 0. 3.08641978e-03
      0. 7.71604944e-03 0. 1.54320989e-02 0. 1.54320989e-03 0.
      7.71604944e-03 0. 1.54320989e-03 3.08641978e-03 3.08641978e-03 0.
      1.54320989e-02 3.08641978e-03 0. 4.62962966e-03 3.08641978e-03
      3.08641978e-03 4.62962966e-03 0.</_>
    <_>
      0. 3.10218967e-02 1.09489048e-02 5.47445239e-03 0. 0.
      2.55474448e-02 5.47445239e-03 1.82481750e-03 3.64963501e-03
      8.57664198e-02 0. 1.82481750e-03 9.12408717e-03 1.82481750e-03 0.
      1.82481750e-03 3.64963501e-03 3.64963501e-03 6.93430677e-02
      1.45985400e-02 9.12408717e-03 5.47445239e-03 1.82481750e-03
      1.82481750e-03 1.82481750e-03 0. 1.27737224e-02 3.64963501e-03 0.
      9.12408717e-03 0. 0. 1.27737224e-02 7.29927002e-03 7.29927002e-03
      2.00729929e-02 3.64963501e-03 1.09489048e-02 1.82481743e-02
      2.18978096e-02 0. 5.47445239e-03 1.82481743e-02 0. 1.82481750e-03
      5.47445239e-03 0. 1.82481750e-03 7.29927002e-03 3.64963501e-03
      2.00729929e-02 2.00729929e-02 3.64963501e-03 5.47445239e-03
      1.82481750e-03 1.09489048e-02 1.27737224e-02 0. 0. 1.82481750e-03
      1.82481750e-03 5.47445239e-03 1.82481750e-03 0. 1.82481750e-03 0.
      1.82481750e-03 0. 5.47445239e-03 0. 0. 3.64963501e-03 0.
      1.82481750e-03 1.64233577e-02 0. 3.64963501e-03 0. 0. 0.
      1.82481750e-03 3.64963501e-03 3.64963501e-03 0. 0. 5.47445239e-03
      0. 2.55474448e-02 0. 0. 1.82481750e-03 7.29927002e-03
      3.64963501e-03 3.64963501e-03 0. 1.82481750e-03 9.12408717e-03
      1.82481750e-03 3.64963501e-03 0. 7.29927002e-03 1.09489048e-02 0.
      0. 1.82481750e-03 1.82481750e-03 3.64963501e-03 0. 3.64963501e-03
      0. 1.82481750e-03 3.64963501e-03 5.47445239e-03 9.12408717e-03 0.
      1.27737224e-02 1.82481750e-03 0. 1.82481750e-03 1.82481750e-03
      1.09489048e-02 0. 0. 0. 1.82481750e-03 0. 0. 1.45985400e-02
      5.47445239e-03 1.82481750e-03 1.82481750e-03 1.27737224e-02
      1.82481750e-03 0. 7.29927002e-03 3.64963501e-03 0. 0. 0.
      1.09489048e-02 1.82481750e-03 7.29927002e-03 3.64963501e-03
      2.55474448e-02 0. 0. 0. 0. 7.29927002e-03 7.29927002e-03
      1.82481750e-03 3.64963501e-03 1.82481750e-03 0. 1.82481750e-03
      5.47445239e-03 0. 0. 0. 0. 1.82481750e-03 7.29927002e-03 0. 0. 0.
      0. 2.37226281e-02 0. 0. 3.64963501e-03 1.82481750e-03
      7.29927002e-03 1.09489048e-02 3.64963501e-03 0. 0. 1.82481750e-03
      5.47445239e-03 9.12408717e-03 1.45985400e-02 0. 0. 0. 0. 0.
      1.09489048e-02 0. 0. 1.82481750e-03 0. 3.64963501e-03
      3.64963501e-03 1.82481750e-03 0. 3.64963501e-03 1.09489048e-02
      3.64963501e-03 0. 0.</_>
    <_>
      0. 4.43349741e-02 6.56814454e-03 4.92610829e-03 3.28407227e-03 0.
      2.46305428e-02 1.64203614e-03 8.21018033e-03 6.56814454e-03
      6.89655170e-02 0. 3.28407227e-03 3.28407227e-03 8.21018033e-03 0.
      0. 1.64203614e-03 1.64203614e-03 4.59770113e-02 2.79146135e-02
      3.28407227e-03 1.14942528e-02 0. 4.92610829e-03 1.64203614e-03 0.
      9.85221658e-03 0. 3.28407227e-03 3.28407227e-03 0. 0.
      2.62725782e-02 0. 3.28407227e-03 1.97044332e-02 0. 1.14942528e-02
      6.56814454e-03 2.79146135e-02 0. 8.21018033e-03 1.64203607e-02
      3.28407227e-03 1.64203614e-03 0. 0. 0. 0. 1.14942528e-02
      8.21018033e-03 1.31362891e-02 0. 4.92610829e-03 3.28407227e-03
      4.92610829e-03 1.80623978e-02 0. 0. 1.64203614e-03 0. 0. 0. 0. 0.
      1.14942528e-02 3.28407227e-03 1.64203614e-03 0. 0. 0. 0. 0.
      3.28407227e-03 1.64203607e-02 0. 1.64203607e-02 3.28407227e-03
      1.64203614e-03 1.64203614e-03 1.64203614e-03 6.56814454e-03
      1.64203614e-03 0. 3.28407227e-03 1.64203614e-03 1.64203614e-03
      1.64203607e-02 1.64203614e-03 0. 0. 1.64203614e-03 0. 0. 0. 0.
      1.64203614e-03 3.28407227e-03 1.64203614e-03 0. 4.92610829e-03
      4.92610829e-03 0. 8.21018033e-03 0. 6.56814454e-03 1.31362891e-02
      0. 1.64203614e-03 0. 8.21018033e-03 0. 0. 1.14942528e-02 0.
      1.14942528e-02 0. 6.56814454e-03 0. 1.64203614e-03 3.28407213e-02
      1.64203614e-03 0. 4.92610829e-03 1.64203614e-03 0. 0.
      8.21018033e-03 1.64203607e-02 1.64203614e-03 3.28407227e-03
      3.94088663e-02 3.28407227e-03 1.64203614e-03 3.28407227e-03 0. 0.
      0. 0. 8.21018033e-03 1.64203614e-03 6.56814454e-03 0.
      1.80623978e-02 0. 3.28407227e-03 0. 0. 8.21018033e-03
      4.92610829e-03 1.64203614e-03 1.64203614e-03 0. 0. 1.64203614e-03
      1.64203614e-03 0. 0. 1.64203614e-03 1.64203614e-03 4.92610829e-03
      4.92610829e-03 0. 0. 3.28407227e-03 0. 2.29885057e-02 0. 0.
      1.64203614e-03 6.56814454e-03 0. 1.31362891e-02 0. 0.
      6.56814454e-03 0. 6.56814454e-03 1.64203614e-03 1.47783253e-02 0.
      9.85221658e-03 0. 1.64203614e-03 0. 6.56814454e-03 1.64203614e-03
      0. 1.64203614e-03 1.64203614e-03 4.92610829e-03 1.31362891e-02
      3.28407227e-03 0. 1.47783253e-02 0. 4.92610829e-03 0. 0.</_>
    <_>
      0. 1.66666675e-02 2.36111116e-02 2.77777785e-03 0. 4.16666688e-03
      8.33333377e-03 0. 0. 0. 3.05555556e-02 2.77777785e-03
      2.77777785e-03 1.25000002e-02 2.77777785e-03 2.77777785e-03
      1.38888892e-03 2.77777785e-03 0. 5.97222224e-02 5.55555569e-03
      6.94444450e-03 5.55555569e-03 1.38888892e-03 5.55555569e-03
      2.77777785e-03 0. 1.11111114e-02 1.25000002e-02 0. 9.72222257e-03
      0. 0. 5.55555569e-03 4.16666688e-03 4.16666688e-03 1.52777778e-02
      4.16666688e-03 1.38888890e-02 1.38888892e-03 1.25000002e-02 0.
      2.77777785e-03 3.19444463e-02 0. 0. 1.38888892e-03 0. 0.
      1.38888892e-03 2.77777785e-03 2.77777785e-03 8.33333377e-03
      1.38888892e-03 1.66666675e-02 0. 8.33333377e-03 6.94444450e-03 0.
      1.38888892e-03 1.38888892e-03 1.38888892e-03 0. 1.38888892e-03
      1.38888892e-03 0. 2.77777785e-03 2.77777785e-03 2.77777785e-03
      4.16666688e-03 1.38888892e-03 2.77777785e-03 0. 4.16666688e-03
      9.72222257e-03 2.22222228e-02 1.38888892e-03 2.08333340e-02
      4.16666688e-03 0. 0. 1.38888892e-03 8.33333377e-03 0. 0.
      1.38888892e-03 4.16666688e-03 1.38888892e-03 2.36111116e-02 0.
      1.38888892e-03 4.16666688e-03 1.66666675e-02 8.33333377e-03
      8.33333377e-03 0. 0. 4.16666688e-03 2.77777785e-03 0. 0.
      4.16666688e-03 1.80555563e-02 2.77777785e-03 0. 1.38888892e-03
      8.33333377e-03 0. 0. 0. 0. 3.75000015e-02 2.77777785e-03
      1.38888892e-03 1.80555563e-02 0. 8.33333377e-03 2.77777785e-03
      1.38888892e-03 1.38888892e-03 8.33333377e-03 1.11111114e-02
      1.38888892e-03 0. 4.16666688e-03 0. 0. 0. 8.33333377e-03
      5.55555569e-03 1.11111114e-02 1.38888892e-03 9.72222257e-03 0. 0.
      5.55555569e-03 6.94444450e-03 0. 4.16666688e-03 0. 1.38888892e-03
      0. 4.16666688e-03 0. 1.52777778e-02 2.77777785e-03 6.94444450e-03
      4.16666688e-03 0. 4.16666688e-03 1.38888892e-03 3.47222239e-02 0.
      1.38888892e-03 4.16666688e-03 4.16666688e-03 0. 1.38888892e-03 0.
      6.94444450e-03 0. 4.16666688e-03 2.77777785e-03 1.38888892e-03 0.
      1.38888892e-03 0. 5.00000007e-02 2.77777785e-03 0. 6.94444450e-03
      6.94444450e-03 1.38888892e-03 0. 1.38888892e-03 2.77777785e-03
      1.38888892e-03 0. 4.16666688e-03 1.38888890e-02 9.72222257e-03 0.
      9.72222257e-03 1.38888892e-03 0. 0. 6.94444450e-03 1.38888892e-03
      1.38888892e-03 1.38888892e-03 2.77777785e-03 2.77777785e-03
      1.38888890e-02 5.55555569e-03 0. 1.38888892e-03 0. 4.16666688e-03
      2.77777785e-03 1.38888892e-03</_>
    <_>
      0. 1.43540669e-02 2.87081338e-02 6.37958525e-03 0. 0.
      1.11642741e-02 0. 1.59489631e-03 4.78468882e-03 7.33652338e-02
      6.37958525e-03 1.11642741e-02 3.18979262e-03 4.78468882e-03
      1.59489631e-03 1.59489631e-03 9.56937764e-03 1.59489631e-03
      8.77192989e-02 4.94417846e-02 1.59489631e-03 0. 0. 3.18979262e-03
      0. 3.18979262e-03 1.59489631e-03 0. 0. 3.18979262e-03
      1.59489631e-03 3.18979262e-03 1.11642741e-02 1.59489631e-03
      1.59489631e-03 4.78468882e-03 6.37958525e-03 1.59489624e-02 0.
      7.97448121e-03 0. 2.71132365e-02 1.27591705e-02 0. 0. 0. 0. 0.
      1.59489631e-03 6.37958525e-03 1.59489631e-03 1.43540669e-02
      3.18979262e-03 2.07336526e-02 4.78468882e-03 7.97448121e-03 0. 0.
      1.59489631e-03 1.59489631e-03 0. 0. 0. 0. 0. 1.59489631e-03
      3.18979262e-03 1.59489631e-03 0. 0. 4.78468882e-03 1.59489631e-03
      6.37958525e-03 0. 2.55183410e-02 3.18979262e-03 1.27591705e-02 0.
      0. 0. 0. 0. 4.78468882e-03 1.59489631e-03 1.59489631e-03 0.
      6.37958525e-03 4.30621989e-02 0. 0. 0. 1.27591705e-02 0.
      4.78468882e-03 1.59489631e-03 0. 1.59489631e-03 0. 1.59489631e-03
      1.59489631e-03 9.56937764e-03 1.59489631e-03 1.59489631e-03 0.
      1.59489631e-03 2.87081338e-02 1.59489631e-03 3.18979262e-03
      1.59489631e-03 0. 0. 0. 3.18979262e-03 4.78468882e-03 0.
      3.18979262e-03 1.59489631e-03 6.37958525e-03 0. 4.78468882e-03
      4.78468882e-03 3.18979262e-03 1.59489631e-03 0. 0. 0. 0.
      3.18979262e-03 9.56937764e-03 6.37958525e-03 0. 6.37958525e-03 0.
      1.59489631e-03 6.37958525e-03 0. 0. 3.18979262e-03 0.
      1.59489631e-03 3.18979262e-03 3.18979262e-03 3.18979262e-03
      3.18979262e-03 1.59489631e-03 0. 3.18979262e-03 1.59489631e-03
      9.56937764e-03 1.59489631e-03 0. 4.78468882e-03 1.59489631e-03 0.
      1.59489631e-03 0. 0. 1.59489631e-03 3.18979262e-03 3.18979262e-03
      1.43540669e-02 0. 9.56937764e-03 0. 0. 3.18979262e-03
      4.78468910e-02 4.78468882e-03 0. 1.59489631e-03 2.23285481e-02
      3.18979262e-03 9.56937764e-03 4.78468882e-03 1.59489631e-03
      4.78468882e-03 0. 3.18979262e-03 7.97448121e-03 2.07336526e-02 0.
      4.78468882e-03 1.59489631e-03 4.78468882e-03 0. 9.56937764e-03 0.
      0. 0. 4.78468882e-03 3.18979262e-03 1.59489631e-03 0. 0. 0.
      3.18979262e-03 3.18979262e-03 4.78468882e-03 1.59489631e-03</_>
    <_>
      0. 2.27642264e-02 1.13821132e-02 1.46341464e-02 0. 0.
      4.87804879e-03 4.87804879e-03 1.62601622e-03 1.62601622e-03
      5.36585338e-02 3.25203245e-03 0. 1.13821132e-02 3.25203245e-03
      1.62601622e-03 0. 3.25203245e-03 0. 6.66666627e-02 1.95121951e-02
      1.62601620e-02 0. 0. 4.87804879e-03 0. 4.87804879e-03
      1.13821132e-02 0. 0. 1.62601622e-03 0. 0. 1.62601622e-03
